tree
version=v2
num_class=1
num_tree_per_iteration=1
label_index=0
max_feature_idx=25
objective=regression
feature_names=n_clicks diff_clicks mean_time_click first_click_sec last_click_sec timeToClick_mean advertiser_id_0 advertiser_id_1 advertiser_id_2 advertiser_id_3 advertiser_id_4 source_id_0 source_id_1 source_id_2 source_id_3 source_id_4 source_id_5 source_id_6 source_id_7 source_id_8 touchX_mean touchY_mean touchs_in_bottom touchs_in_bottom2 latitude_mean longitude_mean
feature_infos=[1:25] [0:258026.86400000003] [0:258026.86400000003] [4.0970000000000004:259182.65100000001] [8.4909999999999997:259182.65100000001] [0.027000000000000003:16552.092000000001] [0:9] [0:23] [0:20] [0:6] none [0:23] [0:21] [0:9] [0:12] [0:5] [0:3] [0:5] [0:3] [0:3] [0:1.6030000000000002] [0:15.962] [0:17] [0:6] [1.6604872963866342:1.885800567885513] [0.81031511431396464:0.92007962598300264]
tree_sizes=1288 1304 1303 1293 1300 1294 1285 1294 1297 1310 1302 1297 1290 1295 1300 1287 1293 1309 1286 1294 1300 1299 1294 1285 1279 1288 1295 1292 1279 1280 1289 1290 1285 1287 1285

Tree=0
num_leaves=15
num_cat=0
split_feature=8 11 13 20 21 25 1 5 5 5 2 21 20 20
split_gain=1.95127e+12 1.77306e+11 1.32059e+11 6.56437e+10 1.31224e+11 8.464e+10 7.57799e+10 6.95306e+10 6.5022e+10 7.47794e+10 1.42483e+11 5.42613e+10 5.93941e+10 7.11953e+10
threshold=1.0000000180025095e-35 1.0000000180025095e-35 4.5000000000000009 0.65916666666666679 0.17108333333333337 0.84484637539662966 229561.61450000005 0.13550000000000004 24.295000000000005 254.80100000000002 45858.540000000015 1.0651329571049566 0.29650000000000004 0.4885000000000001
decision_type=2 2 2 2 2 2 2 2 2 2 2 2 2 2
left_child=2 11 3 6 -5 -6 -1 -7 -9 -10 -11 -2 -13 -14
right_child=1 -3 -4 4 5 7 -8 8 9 10 -12 12 13 -15
leaf_value=232062.92811504821 233188.3263234141 233573.85344890048 226059.55126661333 232195.31987605762 229910.3891336103 227915.9526192919 227964.38832588057 231874.03299320297 230725.76646322105 232728.5660439833 227802.42283783425 233698.73570082386 231760.66616662836 232854.89588329353
leaf_count=6537 6525 5773 25 1804 246 35 29 1439 947 298 43 475 416 4466
internal_value=0 6585.69 -10196.5 -10037 -12842.7 -16886.8 -7980.71 -15303.8 -14735.3 -19896.6 -7198.77 4376.75 2018.29 979.661
internal_count=29058 17655 11403 11378 4812 3008 6566 2762 2727 1288 341 11882 5357 4882
shrinkage=1


Tree=1
num_leaves=15
num_cat=0
split_feature=8 11 13 23 20 21 25 5 21 2 25 21 20 20
split_gain=1.65155e+12 1.50072e+11 1.11775e+11 5.87848e+10 5.72095e+10 1.09013e+11 7.30507e+10 6.75543e+10 8.56649e+10 6.7006e+10 4.7332e+10 4.59268e+10 5.02712e+10 6.02597e+10
threshold=1.0000000180025095e-35 1.0000000180025095e-35 4.5000000000000009 1.5000000000000002 0.65916666666666679 0.17108333333333337 0.8318928842984985 1.3895000000000002 0.95450000000000013 206331.46500000005 0.87106352671623477 1.0651329571049566 0.29650000000000004 0.4885000000000001
decision_type=2 2 2 2 2 2 2 2 2 2 2 2 2 2
left_child=2 11 3 4 9 -6 7 -7 -9 -1 -8 -2 -13 -14
right_child=1 -3 -4 -5 5 6 10 8 -10 -11 -12 12 13 -15
leaf_value=-560.98827129289214 464.64021494252876 819.32513724991338 -6093.8326999999999 -4779.0706725543478 -448.92566310975616 273.55333333333334 -1388.0396229810392 -5133.2484303977271 -1037.6957391826923 -4710.5945312499998 -709.14543845969297 934.21680921052632 -848.80720966045669 157.88421507641067
leaf_count=6528 6525 5773 25 23 1804 36 1780 88 52 25 1042 475 416 4466
internal_value=0 6058.84 -9380.76 -9234 -9131.7 -11753.8 -15449.8 -35215.8 -45150.5 -7210.24 -14217 4026.61 1856.82 901.288
internal_count=29058 17655 11403 11378 11355 4802 2998 176 140 6553 2822 11882 5357 4882
shrinkage=0.08


Tree=2
num_leaves=15
num_cat=0
split_feature=8 11 13 7 23 2 20 21 25 1 2 5 5 5
split_gain=1.39788e+12 1.27021e+11 9.46062e+10 5.45743e+10 4.94776e+10 4.81463e+10 5.16047e+10 9.97275e+10 6.86273e+10 6.71223e+10 1.03433e+11 5.90638e+10 5.43467e+10 7.45821e+10
threshold=1.0000000180025095e-35 1.0000000180025095e-35 4.5000000000000009 7.5000000000000009 1.5000000000000002 130574.78400000003 0.65916666666666679 0.17108333333333337 0.84484637539662966 229.59150000000005 47279.119000000013 0.13550000000000004 24.295000000000005 254.80100000000002
decision_type=2 2 2 2 2 2 2 2 2 2 2 2 2 2
left_child=2 -2 3 4 5 6 -1 -8 9 -9 -11 -10 -13 -14
right_child=1 -3 -4 -5 -6 -7 7 8 11 10 -12 12 13 -15
leaf_value=-511.28098868871024 296.3587333913693 753.7792673057769 -5606.3262999999997 2270.15694921875 -4396.7452921195654 -1835.8353097466961 -386.18440348952436 -1630.4620643382355 -4298.1767276785713 -7506.3959201388889 -1023.3564174107144 -645.044688287437 -1738.7615345501079 -341.59033038403612
leaf_count=6404 11882 5773 25 40 23 227 1766 170 35 36 28 1389 928 332
internal_value=0 5574.13 -8630.3 -8495.28 -8625.36 -8531.18 -8236.03 -10758.6 -14348.2 -30772.6 -58375.8 -12916.3 -12377.1 -17132.7
internal_count=29058 17655 11403 11378 11338 11315 11088 4684 2918 234 64 2684 2649 1260
shrinkage=0.08


Tree=3
num_leaves=15
num_cat=0
split_feature=8 11 13 7 4 13 25 5 22 5 5 25 25 5
split_gain=1.18316e+12 1.0751e+11 8.00747e+10 4.61917e+10 4.67964e+10 5.96382e+10 9.9039e+10 6.1087e+10 5.56913e+10 5.20016e+10 4.92632e+10 8.3648e+10 7.78852e+10 8.33297e+10
threshold=1.0000000180025095e-35 1.0000000180025095e-35 4.5000000000000009 7.5000000000000009 94264.026500000022 1.5000000000000002 0.84548875220185959 1.3895000000000002 5.5000000000000009 0.19225000000000003 2.0186666666666668 0.87057198108680667 0.87106352671623477 3.2030000000000003
decision_type=2 2 2 2 2 2 2 2 2 2 2 2 2 2
left_child=2 -2 3 4 9 7 -7 -6 -9 -1 11 -8 13 -12
right_child=1 -3 -4 -5 5 6 10 8 -10 -11 12 -13 -14 -15
leaf_value=-2315.4051953124999 272.6499937405319 693.47691229646637 -5157.8200500000003 2088.5443320312502 -156.88347000456204 -7054.6835326086948 -1113.7262369791667 -789.29598754353719 -4915.7681398809527 -346.22910995470238 1506.7486979166665 -7566.4873515624995 1898.5298469387756 -4353.4492649147733
leaf_count=88 11882 5773 25 40 1096 23 36 6460 21 3477 24 20 49 44
internal_value=0 5128.2 -7939.87 -7815.66 -7935.33 -9311.19 -26533.4 -8865.69 -10033.3 -4935.46 -18337.1 -42728.5 -6662.59 -28564.3
internal_count=29058 17655 11403 11378 11338 7773 196 7577 6481 3565 173 56 117 68
shrinkage=0.08


Tree=4
num_leaves=15
num_cat=0
split_feature=8 11 13 23 20 12 20 21 1 25 13 3 1 5
split_gain=1.00143e+12 9.09967e+10 6.77752e+10 4.1958e+10 4.09574e+10 7.83897e+10 4.03808e+10 7.74178e+10 5.90687e+10 5.62439e+10 5.71902e+10 8.92244e+10 7.28834e+10 9.16655e+10
threshold=1.0000000180025095e-35 1.0000000180025095e-35 4.5000000000000009 1.5000000000000002 0.14750000000000005 1.0000000180025095e-35 0.65916666666666679 0.17108333333333337 229561.61450000005 0.87106352671623477 1.5000000000000002 67314.354500000016 149636.71100000004 80.266249999999999
decision_type=2 2 2 2 2 2 2 2 2 2 2 2 2 2
left_child=2 -2 3 6 5 -3 8 -8 -1 10 12 -12 -9 -14
right_child=1 4 -4 -5 -6 -7 7 9 -10 -11 11 -13 13 -15
leaf_value=-423.16050228004292 250.83811016663861 185.44102366727941 -4745.1946750000006 -3988.6848641304346 674.43494740595474 -4462.8463281249997 -330.46157912971177 -1083.1510613111413 -4041.6958297413794 -518.9797887176104 376.160703125 -6025.6710731907897 -1310.7042708333333 -7889.7994293478259
leaf_count=6524 11882 136 25 23 5609 28 1804 1840 29 1042 22 38 33 23
internal_value=0 4717.94 -7304.68 -7190.4 7974.98 -7602.11 -7103.98 -9306.92 -5489.68 -12421.6 -15582.9 -45979.2 -14621 -50160.4
internal_count=29058 17655 11403 11378 5773 164 11355 4802 6553 2998 1956 60 1896 56
shrinkage=0.08


Tree=5
num_leaves=15
num_cat=0
split_feature=8 11 13 1 7 4 20 5 5 21 13 25 2 1
split_gain=8.47609e+11 7.70196e+10 5.90977e+10 4.62467e+10 3.93532e+10 4.12892e+10 5.18552e+10 7.34477e+10 4.62907e+10 4.0588e+10 4.15032e+10 9.25855e+10 6.05366e+10 6.59805e+10
threshold=1.0000000180025095e-35 1.0000000180025095e-35 3.5000000000000004 52476.53100000001 7.5000000000000009 94264.026500000022 0.065250000000000016 72.261500000000012 0.38250000000000001 0.027071428571428576 1.5000000000000002 0.86669307110105887 73383.398500000025 8058.1285000000016
decision_type=2 2 2 2 2 2 2 2 2 2 2 2 2 2
left_child=2 -2 4 -4 5 8 7 -7 -1 -8 -11 12 13 -12
right_child=1 -3 3 -5 -6 6 9 -9 -10 10 11 -13 -14 -15
leaf_value=-1403.4044196428572 230.77104133352972 586.9587967153127 -5271.9653697916665 -503.88519021739131 1979.6806718750001 1271.6980602134147 178.32730980282736 -1220.3322343750001 -232.24479257518797 -691.6566633362803 -3173.6851953125001 -388.78913015463922 -1006.8551106770833 -9395.3070703124995
leaf_count=231 11882 5773 30 23 40 205 336 120 3325 6928 24 97 24 20
internal_value=0 4340.51 -6720.31 -40035 -6564.74 -6675.48 -7969.39 4394.55 -3854.05 -8510.28 -9019.01 -24693.3 -52985.1 -75021.2
internal_count=29058 17655 11403 53 11350 11310 7754 325 3556 7429 7093 165 68 44
shrinkage=0.08


Tree=6
num_leaves=15
num_cat=0
split_feature=8 11 13 21 2 20 20 20 1 5 3 5 20 3
split_gain=7.17416e+11 6.51894e+10 5.07866e+10 3.88725e+10 4.47529e+10 4.25495e+10 5.10038e+10 7.56262e+10 5.99049e+10 5.12214e+10 5.53712e+10 3.62876e+10 4.73925e+10 4.02783e+10
threshold=1.0000000180025095e-35 1.0000000180025095e-35 4.5000000000000009 1.0651329571049566 206331.46500000005 0.29650000000000004 0.4885000000000001 0.44936507936507941 117620.20250000003 14.491500000000004 109133.14650000002 2080.0345000000002 0.69916666666666683 151187.93350000004
decision_type=2 2 2 2 2 2 2 2 2 2 2 2 2 2
left_child=2 3 -1 4 -2 -5 7 -7 9 -9 -11 13 -13 -8
right_child=1 -3 -4 5 -6 6 11 8 -10 10 -12 12 -14 -15
leaf_value=-486.70077995913169 356.14957782937245 540.00211174324443 -4096.4003750000002 775.43003947368413 -3104.7999153645833 -178.16145270270269 293.20521169751873 -5242.9050520833334 1437.79384375 -4438.5650520833333 798.03040178571439 -70.871791666666667 -5098.3956562499998 -195.53359549813533
leaf_count=11378 6501 5773 25 475 24 296 2539 48 20 24 28 30 20 1877
internal_value=0 3993.27 -6182.68 2653.87 4292.75 657.66 -221.432 -10811.9 -31987.9 -41980 -20235.7 765.051 -26023.5 1068.36
internal_count=29058 17655 11403 11882 6525 5357 4882 416 120 100 52 4466 50 4416
shrinkage=0.08


Tree=7
num_leaves=15
num_cat=0
split_feature=8 11 13 20 14 25 24 21 20 23 2 24 21 21
split_gain=6.07221e+11 5.51764e+10 4.46414e+10 4.09286e+10 3.5826e+10 3.72173e+10 4.45457e+10 4.16202e+10 3.75846e+10 3.54119e+10 3.56945e+10 4.73292e+10 5.5752e+10 6.38372e+10
threshold=1.0000000180025095e-35 1.0000000180025095e-35 3.5000000000000004 0.77341666666666686 2.5000000000000004 0.88014576817011558 1.7227733305723354 2.5775000000000001 0.39937500000000009 1.5000000000000002 130574.78400000003 1.8262021379358482 0.48050000000000009 0.78150000000000008
decision_type=2 2 2 2 2 2 2 2 2 2 2 2 2 2
left_child=2 4 9 -4 5 -2 -7 8 -8 10 -1 12 -12 -14
right_child=1 -3 3 -5 -6 6 7 -9 -10 -11 11 -13 13 -15
leaf_value=-417.55259473536034 138.28425681644956 496.80196393772735 -4572.3671142578123 -27.128779761904763 1415.6386615953948 1323.1369855084197 1760.252565625 -2517.1956847426472 19.970729031735754 -3580.1154619565218 780.77001736111106 -4510.4998883928574 -3993.4908662280704 -387.35424776785715
leaf_count=11100 10824 5773 32 21 152 386 100 34 386 23 72 28 57 70
internal_value=0 3673.81 -5688.07 -34642.8 2441.56 2243.89 8400.66 2359.36 4725.67 -5552.86 -5473.27 -17886.7 -12470.4 -25073.2
internal_count=29058 17655 11403 53 11882 11730 906 520 486 11350 11327 227 199 127
shrinkage=0.08


Tree=8
num_leaves=15
num_cat=0
split_feature=8 13 1 21 20 21 14 1 25 13 21 25 20 1
split_gain=5.13952e+11 5.15837e+10 9.95852e+10 4.85246e+10 4.96767e+10 7.42385e+10 8.07398e+10 5.19337e+10 3.95722e+10 3.89551e+10 7.37515e+10 8.3965e+10 1.26481e+11 7.93419e+10
threshold=1.0000000180025095e-35 1.0000000180025095e-35 191793.53000000006 1.0718210853666725 0.12450000000000001 0.40910000000000007 1.0000000180025095e-35 47108.422500000008 0.87085986874929455 1.5000000000000002 0.8922500000000001 0.86669307110105887 0.71987500000000015 2077.0335000000009
decision_type=2 2 2 2 2 2 2 2 2 2 2 2 2 2
left_child=9 3 -3 4 5 6 7 -2 -8 -1 11 12 -11 -14
right_child=1 2 -4 -5 -6 -7 8 -9 -10 10 -12 -13 13 -15
leaf_value=-394.46159162277144 -291.27353940217392 -163.11792384530793 -5728.4388020833339 113.50967185276592 446.26195458046283 709.78145457474227 -1984.6948369565216 -3944.0046180555555 -6850.3407578125007 -7647.620816964286 926.33069982394375 -680.18466186523438 -4627.1666354166664 1057.3548532196969
leaf_count=11106 322 1023 21 5622 10306 291 23 27 20 35 71 128 30 33
internal_value=0 3379.9 -3438.3 3808.43 5030.93 -3228.16 -12210.9 -7173.29 -53097.3 -5233.02 -16535.5 -25368 -47396.6 -20619.5
internal_count=29058 17655 1044 16611 10989 683 392 349 43 11403 297 226 98 63
shrinkage=0.08


Tree=9
num_leaves=15
num_cat=0
split_feature=8 11 7 13 22 20 12 20 21 1 25 24 5 24
split_gain=4.35009e+11 4.40872e+10 3.76572e+10 5.7644e+10 3.50308e+10 3.29932e+10 6.43782e+10 3.22281e+10 6.14011e+10 4.76537e+10 4.70217e+10 4.46357e+10 4.02127e+10 1.32979e+11
threshold=1.0000000180025095e-35 1.0000000180025095e-35 7.5000000000000009 4.5000000000000009 5.5000000000000009 0.14750000000000005 1.0000000180025095e-35 0.65916666666666679 0.17108333333333337 229561.61450000005 0.87106352671623477 1.7097747956643701 0.66650000000000009 1.7150504211282094
decision_type=2 2 2 2 2 2 2 2 2 2 2 2 2 2
left_child=2 -2 3 4 7 6 -3 9 -9 -1 -10 -12 13 -13
right_child=1 5 -4 -5 -6 -7 -8 8 10 -11 11 12 -14 -15
leaf_value=-250.81577776173981 160.64206924076333 30.858293887867649 1924.5162534722224 -4685.4082656250002 -3439.8895833333331 462.82939185349437 -4181.5734709821427 -168.51999357638888 -991.19216965885823 -3682.5929567307694 -1020.2931991876658 -6482.7948437499999 259.18320608525539 1394.8372460937501
leaf_count=6495 11882 136 45 20 24 5609 28 1800 1953 26 377 24 607 32
internal_value=0 3109.51 -4814.38 -4928.77 -4834.15 5376.59 -8604.22 -4753.19 -6721.82 -3306.23 -9497.48 -4065.85 874.282 -24766.1
internal_count=29058 17655 11403 11358 11338 5773 164 11314 4793 6521 2993 1040 663 56
shrinkage=0.08


Tree=10
num_leaves=15
num_cat=0
split_feature=8 13 1 12 21 21 20 14 22 14 24 25 5 21
split_gain=3.68192e+11 4.2689e+10 8.45503e+10 4.15318e+10 3.80968e+10 5.94175e+10 7.47766e+10 6.6885e+10 7.07957e+10 3.86818e+10 3.77126e+10 3.66939e+10 3.57723e+10 6.31162e+10
threshold=1.0000000180025095e-35 1.0000000180025095e-35 191793.53000000006 3.5000000000000004 1.0651329571049566 0.43325000000000008 0.14750000000000005 1.0000000180025095e-35 1.5000000000000002 1.0000000180025095e-35 1.7227733305723354 0.90803963055598491 32.79375000000001 2.3005000000000004
decision_type=2 2 2 2 2 2 2 2 2 2 2 2 2 2
left_child=-1 3 11 4 5 6 7 8 -2 -8 -9 -3 13 -6
right_child=1 2 -4 -5 12 -7 9 10 -10 -11 -12 -13 -14 -15
leaf_value=-354.33851452194597 -220.00465725806453 -80.91710079934542 -5292.2245833333336 -660.2778013392857 -576.32969477103961 549.25143273162291 168.06263778555481 -6363.8127343750002 -4391.3199999999997 1017.44732687982 -1660.1199414062501 -2920.7289739583334 233.04758721397721 492.54227223115805
leaf_count=11403 372 993 21 308 1010 5564 2911 20 28 389 24 30 5441 544
internal_value=0 2860.75 -3341.83 3250.58 3467.92 4793.1 1713.07 -10470.7 -6399.96 3352.34 -47477 -2052.45 1704.54 -2526.95
internal_count=29058 17655 1044 16611 16303 9308 3744 444 400 3300 44 1023 6995 1554
shrinkage=0.08


Tree=11
num_leaves=15
num_cat=0
split_feature=8 25 24 20 23 3 20 4 7 13 3 21 21 20
split_gain=3.11637e+11 3.93671e+10 3.92099e+10 4.64771e+10 4.46584e+10 3.43428e+10 4.18289e+10 5.07085e+10 3.62786e+10 4.02831e+10 3.40837e+10 3.39979e+10 5.53615e+10 5.48933e+10
threshold=1.0000000180025095e-35 0.81439334356688764 1.707577757765302 0.12450000000000001 1.5000000000000002 179681.20650000006 0.078250000000000014 190054.62250000003 7.5000000000000009 3.5000000000000004 168213.08900000004 0.90750000000000008 0.096250000000000016 0.9261666666666668
decision_type=2 2 2 2 2 2 2 2 2 2 2 2 2 2
left_child=5 -2 3 -3 -4 8 7 -7 9 10 11 12 -1 -13
right_child=1 2 4 -5 -6 6 -8 -9 -10 -11 -12 13 -14 -15
leaf_value=27.295989150943399 1021.4732795833334 -2014.0712413194444 174.51575534204167 938.5753385815467 -2646.2159592013886 -2323.0846630859373 -620.30776518122525 1160.1191794478527 2106.3187239583335 -2722.1206547619049 420.09503428270045 1.5326296316964285 -582.30736341911768 -1934.2600434922681
leaf_count=1325 375 36 16555 653 36 32 3028 163 42 42 474 2800 3400 97
internal_value=0 2631.89 2411.91 9803.76 2104.94 -4074.89 -6839.63 7356.46 -2985.56 -3136.85 -2976.6 -3488.27 -5142 -791.042
internal_count=29058 17655 17280 689 16591 11403 3223 195 8180 8138 8096 7622 4725 2897
shrinkage=0.08


Tree=12
num_leaves=15
num_cat=0
split_feature=7 13 3 20 4 4 1 5 2 21 20 24 13 24
split_gain=2.65697e+11 5.3058e+10 3.52091e+10 4.2403e+10 4.33739e+10 3.49498e+10 5.16415e+10 4.60293e+10 3.85493e+10 3.66468e+10 6.18255e+10 9.29188e+10 5.34459e+10 6.37007e+10
threshold=1.0000000180025095e-35 2.5000000000000004 179681.20650000006 0.078250000000000014 190054.62250000003 238762.93150000004 107738.53850000002 584.70000000000016 125153.51100000001 0.096250000000000016 0.65916666666666679 1.8850786709801646 1.5000000000000002 1.7924924682236771
decision_type=2 2 2 2 2 2 2 2 2 2 2 2 2 2
left_child=1 -1 5 4 -4 8 -7 -8 9 -2 -11 12 -12 -14
right_child=2 -3 3 -5 -6 6 7 -9 -10 10 11 -13 13 -15
leaf_value=207.13506094131054 156.39880557287955 -2513.4704008152175 -2014.5075142045457 -592.52735851500336 1169.2153057065218 2303.9955282738097 458.29826069078945 -2549.0853166118422 -1376.9954186163102 -115.05548496734859 -467.00897341008772 -3817.3487527412281 -1250.922076539855 -6194.5626562500001
leaf_count=17222 1403 46 33 3016 161 84 228 38 187 4326 2166 57 69 22
internal_value=0 2498.6 -3659.52 -6484.8 7845.68 -2602.51 7184.37 358.4 -3018.72 -2688.72 -3669.91 -7842.07 -6835.04 -30576.1
internal_count=29058 17268 11790 3210 194 8580 350 266 8230 8043 6640 2314 2257 91
shrinkage=0.08


Tree=13
num_leaves=15
num_cat=0
split_feature=8 11 23 9 4 13 25 20 21 24 5 3 5 5
split_gain=2.25e+11 3.46452e+10 3.03161e+10 2.97226e+10 2.95321e+10 4.76925e+10 7.52084e+10 7.13133e+10 8.46947e+10 5.22942e+10 4.89275e+10 4.96601e+10 4.18771e+10 3.92775e+10
threshold=1.0000000180025095e-35 1.0000000180025095e-35 1.5000000000000002 1.0000000180025095e-35 94264.026500000022 1.5000000000000002 0.86669307110105887 0.71987500000000015 0.86850000000000016 1.7227733305723354 1.3895000000000002 109133.14650000002 2.0186666666666668 0.19225000000000003
decision_type=2 2 2 2 2 2 2 2 2 2 2 2 2 2
left_child=2 -2 3 4 13 10 7 8 -7 12 11 -6 -8 -1
right_child=1 -3 -4 -5 5 6 9 -9 -10 -11 -12 -13 -14 -15
leaf_value=-1757.5004509943183 100.7907063599352 339.68178451953054 -3178.507472826087 1828.1804869186046 -964.42856770833328 -8963.4854076086958 -3862.8744073275861 -985.54424107142859 -2020.4563849431818 2179.8889144736845 -416.7907755444453 419.28751665965211 -179.85373487903229 -46.102412095323743
leaf_count=88 11882 5773 23 43 204 23 29 42 22 38 6463 891 62 3475
internal_value=0 2236.32 -3462.44 -3389.14 -3488.67 -4581.33 -19232.7 -41954.5 -69613.9 -3908.77 -4162.6 2018.74 -16919.5 -1104.64
internal_count=29058 17655 11403 11380 11337 7774 216 87 45 129 7558 1095 91 3563
shrinkage=0.08


Tree=14
num_leaves=15
num_cat=0
split_feature=7 13 25 24 20 5 23 20 21 21 12 25 20 21
split_gain=1.91592e+11 4.4734e+10 3.41494e+10 3.45251e+10 4.55723e+10 7.8695e+10 3.38659e+10 3.35493e+10 3.50978e+10 5.8918e+10 4.20112e+10 3.93102e+10 5.31727e+10 5.19824e+10
threshold=1.0000000180025095e-35 2.5000000000000004 0.81439334356688764 1.7080092590616875 0.12450000000000001 154.31725000000003 1.5000000000000002 1.0000000180025095e-35 1.0651329571049566 0.43325000000000008 5.5000000000000009 0.87152504559708188 0.95216666666666672 0.086200000000000013
decision_type=2 2 2 2 2 2 2 2 2 2 2 2 2 2
left_child=1 2 -1 4 5 -4 7 -5 9 11 -10 13 -13 -9
right_child=-2 -3 3 6 -6 -7 -8 8 10 -11 -12 12 -14 -15
leaf_value=939.82664807561309 -248.60515681986854 -2321.7024932065215 1283.2675600961538 -2913.4631317934786 851.03679178470247 -5217.8223082386367 -2695.9101273148149 435.9490720075292 20.167432093586878 410.13810430910405 -2647.3530016447371 -138.01713282590052 -1701.1241948428963 -234.60508083087694
leaf_count=367 11790 46 26 23 706 22 27 1627 6705 5558 38 583 183 1357
internal_value=0 2121.74 2204.92 1997.13 8610.82 -21205 1687.42 1746.86 1801.55 3060.15 64.1836 -2.7989 -6393.11 1637.61
internal_count=29058 17268 17222 16855 754 48 16101 16074 16051 9308 6743 3750 766 2984
shrinkage=0.08


Tree=15
num_leaves=15
num_cat=0
split_feature=8 13 1 21 21 20 5 25 25 8 20 20 5 5
split_gain=1.6284e+11 3.26626e+10 6.91912e+10 2.98335e+10 2.99615e+10 7.2288e+10 4.64444e+10 7.46391e+10 6.40831e+10 6.2479e+10 6.01004e+10 7.93444e+10 8.31865e+10 6.00014e+10
threshold=1.0000000180025095e-35 1.0000000180025095e-35 191793.53000000006 1.0718210853666725 2.5775000000000001 0.94316666666666682 35.426000000000009 0.87455609812471302 0.87152504559708188 1.5000000000000002 0.41725000000000007 0.4885000000000001 14.491500000000004 6.4465000000000012
decision_type=2 2 2 2 2 2 2 2 2 2 2 2 2 2
left_child=-1 3 -3 -2 6 -6 7 8 9 10 -5 12 -12 -10
right_child=1 2 -4 4 5 -7 -8 -9 13 -11 11 -13 -14 -15
leaf_value=-235.64683697546698 256.16371324449449 -188.52776423509289 -4827.462023809524 290.70171663851352 689.81894946808507 -2806.2221835937503 102.10236303374656 1350.434546875 -247.41706112132354 692.25297972623969 -6300.5074629934215 -905.37375484785196 -284.41026041666669 -3303.4911538461538
leaf_count=11403 10989 1023 21 222 705 40 3630 130 68 242 38 419 24 104
internal_value=0 1902.49 -3523 2243.48 369.838 6276.4 -532.436 -5797.58 -8436.92 -5205.5 -9976.19 -16257.7 -49646.2 -26190.9
internal_count=29058 17655 1044 16611 5622 745 4877 1247 1117 945 703 481 62 172
shrinkage=0.08


Tree=16
num_leaves=15
num_cat=0
split_feature=7 13 1 25 25 20 24 20 25 25 20 12 25 25
split_gain=1.38761e+11 3.71016e+10 6.8638e+10 4.18471e+10 3.67752e+10 3.75102e+10 3.36433e+10 4.84343e+10 5.18182e+10 5.46383e+10 3.79857e+10 3.09511e+10 4.79059e+10 3.06251e+10
threshold=1.0000000180025095e-35 1.0000000180025095e-35 182515.22300000003 0.90803963055598491 0.91960037888779989 0.61347638503888569 1.7924924682236771 0.61230123856491259 0.86693025128471424 0.86669307110105887 0.95716666666666683 3.5000000000000004 0.85557321290253585 0.87153575041548048
decision_type=2 2 2 2 2 2 2 2 2 2 2 2 2 2
left_child=1 4 3 6 11 -6 -3 -8 9 10 -9 -1 -13 -14
right_child=-2 2 -4 -5 5 -7 7 8 -10 -11 -12 12 13 -15
leaf_value=193.37536360707594 -211.57067854113654 106.00806747939562 -4972.3450156250001 -3402.8173076923076 -293.92237591911766 -4660.1574687500006 730.33101089015156 -2579.6817473958336 1866.2150625000002 -5302.0814535984855 1081.2130709134615 -3421.5211328125001 348.3427734375 -1949.7264656250002
leaf_count=16005 11790 728 20 26 34 20 66 60 20 33 26 36 144 50
internal_value=0 1805.67 -4173.37 -2964.17 2165.02 -23888.1 -1861.44 -13177.6 -23769.2 -31684.7 -18411.2 2251.67 -9266.29 -3049.29
internal_count=29058 17268 979 959 16289 54 933 205 139 119 86 16235 230 194
shrinkage=0.08


Tree=17
num_leaves=15
num_cat=0
split_feature=8 25 24 20 7 13 22 12 20 20 13 24 21 25
split_gain=1.17931e+11 2.8031e+10 2.80121e+10 4.24981e+10 2.69316e+10 4.14484e+10 2.94926e+10 2.74671e+10 5.94429e+10 5.75807e+10 6.6317e+10 6.69316e+10 5.78555e+10 1.10311e+11
threshold=1.0000000180025095e-35 0.81439334356688764 1.6988436896148564 0.12450000000000001 7.5000000000000009 4.5000000000000009 5.5000000000000009 1.0000000180025095e-35 0.36525000000000002 0.51625000000000021 1.0000000180025095e-35 1.7924924682236771 0.58525000000000016 0.87234330034940311
decision_type=2 2 2 2 2 2 2 2 2 2 2 2 2 2
left_child=4 -2 3 -3 5 6 7 8 -1 12 -11 -12 13 -10
right_child=1 2 -4 -5 -6 -7 -8 -9 9 10 11 -13 -14 -15
leaf_value=588.34044934508404 813.79972125000006 -2087.6232007575759 96.67860543355016 878.37235283801033 1752.7056493055557 -3846.9747812500004 -3003.2961718750003 -308.11567210000004 -4672.9623248106063 72.184288904071607 -293.92781151574803 -1884.2006195887445 -461.08656161723167 1479.2997836538464
leaf_count=773 375 33 16757 490 45 20 24 6250 66 3156 635 231 177 26
internal_value=0 1619.04 1433.42 8640.32 -2506.72 -2603.45 -2523.22 -2448.94 -717.96 -2172.12 -1224.77 -8976.54 -16336.7 -36678.5
internal_count=29058 17655 17280 523 11403 11358 11338 11314 5064 4291 4022 866 269 92
shrinkage=0.08


Tree=18
num_leaves=15
num_cat=0
split_feature=7 13 3 20 4 4 1 5 5 2 21 2 21 21
split_gain=1.00554e+11 3.17615e+10 2.84619e+10 3.53248e+10 3.66227e+10 2.88219e+10 4.38981e+10 3.90512e+10 3.51853e+10 3.94731e+10 3.12219e+10 2.99823e+10 2.98241e+10 5.28031e+10
threshold=1.0000000180025095e-35 2.5000000000000004 179681.20650000006 0.078250000000000014 190054.62250000003 238762.93150000004 107738.53850000002 584.70000000000016 6.011750000000001 119832.47150000003 0.76616666666666677 125153.51100000001 0.096250000000000016 0.21600000000000003
decision_type=2 2 2 2 2 2 2 2 2 2 2 2 2 2
left_child=1 -1 5 4 -4 11 -7 8 9 10 -8 12 -2 -14
right_child=2 -3 3 -5 -6 6 7 -9 -10 -11 -12 -13 13 -15
leaf_value=128.5755774137005 224.10545661083393 -1976.3691508152174 -1764.7732196969696 -450.62558184474466 1160.6999048913044 2201.2679538690477 1807.4698074127909 -2270.8785649671054 1377.5910522460938 -2699.1938978040539 -2018.4920781250003 -1135.7194059157755 -1024.5944298986487 -121.45098147998709
leaf_count=17222 1403 46 33 3016 161 84 43 38 128 37 20 187 444 6196
internal_value=0 1537.1 -2251.29 -4791.48 8288.35 -1300.94 7586.64 1293.21 6239.74 -7814.85 7410.98 -1678.9 -1387.87 -2273.02
internal_count=29058 17268 11790 3210 194 8580 350 266 228 100 63 8230 8043 6640
shrinkage=0.08


Tree=19
num_leaves=15
num_cat=0
split_feature=7 13 1 25 25 20 24 20 25 25 20 21 12 25
split_gain=8.5109e+10 3.03531e+10 5.68805e+10 3.52198e+10 3.10542e+10 3.17471e+10 2.85284e+10 4.15845e+10 4.09778e+10 4.37791e+10 3.05301e+10 2.69129e+10 2.60263e+10 4.06186e+10
threshold=1.0000000180025095e-35 1.0000000180025095e-35 182515.22300000003 0.90803963055598491 0.91960037888779989 0.61347638503888569 1.7924924682236771 0.60883281333690531 0.86693025128471424 0.86673540530189719 0.95716666666666683 0.4582500000000001 3.5000000000000004 0.85557321290253585
decision_type=2 2 2 2 2 2 2 2 2 2 2 2 2 2
left_child=1 4 3 6 12 -6 -3 -8 9 10 11 -9 -1 -14
right_child=-2 2 -4 -5 5 -7 7 8 -10 -11 -12 -13 13 -15
leaf_value=157.64621199917994 -165.69484171570187 84.230513392857134 -4542.0591015625005 -3135.6587139423077 -288.42890165441173 -4305.2671406250001 921.17961805555569 -4729.2774921874998 1707.3173359374998 -4923.2326131465516 965.66305889423074 -1310.5190652901786 -3167.413372395833 -241.48044861469072
leaf_count=16005 11790 728 20 26 34 20 54 20 20 29 26 56 36 194
internal_value=0 1414.13 -3993.87 -2893.1 1739.17 -22201.8 -1881.45 -12301.9 -20819.1 -27255.8 -17508.3 -27627.4 1818.8 -8743.16
internal_count=29058 17268 979 959 16289 54 933 205 151 131 102 76 16235 230
shrinkage=0.08


Tree=20
num_leaves=15
num_cat=0
split_feature=8 23 11 14 25 20 21 20 21 5 5 8 2 5
split_gain=7.24431e+10 2.56835e+10 2.50979e+10 2.87019e+10 2.96048e+10 3.48198e+10 3.09863e+10 6.63826e+10 3.09446e+10 3.85848e+10 3.79949e+10 3.52492e+10 5.79164e+10 5.76279e+10
threshold=1.0000000180025095e-35 1.5000000000000002 1.0000000180025095e-35 2.5000000000000004 0.88014576817011558 0.36525000000000002 2.5775000000000001 0.95216666666666672 1.0651329571049566 32.79375000000001 154.31725000000003 1.5000000000000002 8479.4957500000037 20.876000000000005
decision_type=2 2 2 2 2 2 2 2 2 2 2 2 2 2
left_child=1 -1 3 4 6 -6 8 -8 -2 11 -11 12 13 -10
right_child=2 -3 -4 -5 5 -7 7 -9 9 10 -12 -13 -14 -15
leaf_value=-151.77614967322057 68.571964478075358 -2827.8117119565218 238.35695483013598 1127.2932514391448 1473.7944991071429 217.50484909370724 707.8740435139573 -3087.1780292338708 -491.59394573124047 887.79305533854165 -157.91359436922062 255.18990668402779 -4472.0051227678578 -2544.9988845915841
leaf_count=11380 5918 23 5773 152 175 731 609 31 653 240 3028 216 28 101
internal_value=0 -1964.67 1268.94 437.865 260.943 5752.07 -198.68 6550.64 -622.832 -2675.93 -1013.97 -8118.12 -11241.6 -9583.15
internal_count=29058 11403 17655 11882 11730 906 10824 640 10184 4266 3268 998 782 754
shrinkage=0.08


Tree=21
num_leaves=15
num_cat=0
split_feature=7 13 1 25 25 20 25 20 24 20 25 25 20 3
split_gain=6.14064e+10 2.51087e+10 4.82447e+10 3.02108e+10 2.68884e+10 2.66008e+10 2.59504e+10 2.46141e+10 2.41694e+10 3.52921e+10 3.72809e+10 3.95086e+10 2.6892e+10 2.39301e+10
threshold=1.0000000180025095e-35 1.0000000180025095e-35 182515.22300000003 0.90803963055598491 0.91960037888779989 0.61347638503888569 0.81439334356688764 1.0000000180025095e-35 1.7924924682236771 0.61230123856491259 0.86693025128471424 0.86669307110105887 0.95716666666666683 179681.20650000006
decision_type=2 2 2 2 2 2 2 2 2 2 2 2 2 2
left_child=1 4 3 8 6 -6 -1 -8 -3 -10 11 12 -11 -2
right_child=13 2 -4 -5 5 -7 7 -9 9 10 -12 -13 -14 -15
leaf_value=806.0689857104702 -71.030324792395106 74.728933078640111 -4186.2161796874998 -2906.0719591346156 -300.63804227941176 -3977.5197265625002 -2397.6062000000002 114.59103709841415 614.6559185606061 -2197.3434088541667 1563.8879609374999 -4522.2410700757573 882.92429687499998 -327.0791850175234
leaf_count=351 8580 728 20 26 34 20 25 15859 66 60 20 33 26 3210
internal_value=0 1201.18 -3717.48 -2703.71 1496.81 -20780.6 1570.9 1382.96 -1766.76 -11358.1 -20399.3 -27113.3 -15826.2 -1759.29
internal_count=29058 17268 979 959 16289 54 16235 15884 933 205 139 119 86 11790
shrinkage=0.08


Tree=22
num_leaves=15
num_cat=0
split_feature=11 20 21 25 4 24 8 2 3 23 7 5 3 13
split_gain=5.23972e+10 3.6949e+10 7.71768e+10 4.06167e+10 5.18278e+10 4.35739e+10 3.70753e+10 3.84862e+10 3.32843e+10 6.09536e+10 4.21738e+10 3.54423e+10 4.98434e+10 4.31633e+10
threshold=1.0000000180025095e-35 0.89850000000000019 1.1399401945522614 0.87153575041548048 24060.551000000003 1.6988436896148564 1.0000000180025095e-35 37399.088500000005 86230.711000000025 1.5000000000000002 4.5000000000000009 1.4885000000000004 109133.14650000002 1.5000000000000002
decision_type=2 2 2 2 2 2 2 2 2 2 2 2 2 2
left_child=8 -2 3 -3 -5 -6 -7 -8 -1 10 11 12 -10 -14
right_child=1 2 -4 4 5 6 7 -9 9 -11 -12 -13 13 -15
leaf_value=68.342223779472064 283.01651224334682 111.82295802489905 -4837.9722159090916 -3912.9726953125 1713.7386070478722 196.41185267857142 -2367.4063431250001 569.86716638513519 -727.63951625922505 -4445.3244866071427 -2793.4307606907892 -168.89408659749509 552.01990836517473 -2627.1563727678576
leaf_count=7804 5674 1486 22 32 47 112 125 37 271 21 38 12216 1145 28
internal_value=0 2269.5 -1597.11 -892.762 -10535.1 -6709.38 -11534.8 -21206.8 -794.532 -1732.45 -1649.92 -1557.37 3127.7 5951.65
internal_count=29058 7535 1861 1839 353 321 274 162 21523 13719 13698 13660 1444 1173
shrinkage=0.08


Tree=23
num_leaves=15
num_cat=0
split_feature=8 20 20 13 5 21 21 21 21 25 25 5 25 5
split_gain=5.10136e+10 2.31936e+10 4.91948e+10 5.89089e+10 5.04891e+10 5.52815e+10 4.355e+10 6.66711e+10 5.81024e+10 6.24992e+10 6.03938e+10 5.5011e+10 5.23489e+10 4.52738e+10
threshold=1.0000000180025095e-35 0.65916666666666679 0.74683333333333346 1.0000000180025095e-35 3.4225000000000003 0.60150000000000003 1.4497500000000001 0.95450000000000013 2.3005000000000004 0.87114082969452866 0.87068162073650723 22.496250000000003 0.84484637539662966 20.876000000000005
decision_type=2 2 2 2 2 2 2 2 2 2 2 2 2 2
left_child=1 -1 3 -3 5 -5 7 -4 9 10 -8 -12 -9 -10
right_child=-2 2 6 4 -6 -7 8 12 13 -11 11 -13 -14 -15
leaf_value=-34.124970461026614 85.18748023311386 -598.98101406250009 -137.66069674240026 1539.7282514880953 -6176.3175852272734 -3890.1375948660716 -301.64395380434786 -2093.9685648148147 795.10235424440293 266.03223817567567 -7233.7536647727275 -1995.9992857142859 1639.45609375 -1095.8652530487805
leaf_count=6575 17655 900 3158 21 22 28 23 27 134 37 33 21 219 205
internal_value=0 -1648.67 -3313 -9674.97 -37406.4 -19538.2 -1711.38 -485.564 -10922.5 -30452.2 -46683.1 -64960.6 15371.1 -4355.04
internal_count=29058 11403 4828 971 71 49 3857 3404 453 114 77 54 246 339
shrinkage=0.08


Tree=24
num_leaves=15
num_cat=0
split_feature=7 4 3 2 5 4 20 3 5 5 24 20 24 24
split_gain=4.34462e+10 2.43104e+10 3.72203e+10 5.27716e+10 3.39594e+10 3.66593e+10 4.00345e+10 3.32891e+10 3.24617e+10 4.01078e+10 5.61467e+10 3.71688e+10 3.65852e+10 5.02424e+10
threshold=1.0000000180025095e-35 241479.16100000005 177193.41150000002 45858.540000000015 188.13559527469559 249699.40550000002 0.27925000000000005 174524.38200000004 10.146500000000001 5.6225000000000014 1.7145048951189552 0.56251923076923094 1.7728262224477827 1.8239574851852269
decision_type=2 2 2 2 2 2 2 2 2 2 2 2 2 2
left_child=-1 2 7 -4 8 -6 -7 -2 9 12 -11 -10 -3 -14
right_child=1 4 3 -5 5 6 -8 -9 11 10 -12 -13 13 -15
leaf_value=80.829286337987895 -90.112588670905723 800.49560386344183 -388.25250368804092 -4513.7569453124997 364.00034170560753 -4538.0571250000003 -847.508747944079 1292.5788841261062 -29.906307744565215 -5290.6715859374999 -364.09909539473688 1612.8618042392418 -2513.6046244517547 1212.8081770833332
leaf_count=17268 8060 292 2542 20 107 25 76 113 138 20 57 244 57 39
internal_value=0 -1479.81 -1929.97 -5255.72 3100.7 -8348.2 -22012.6 -887.443 5912.23 301.121 -20546.6 12742.5 4438.43 -12496.9
internal_count=29058 11790 10735 2562 1055 208 101 8173 847 465 77 382 388 96
shrinkage=0.08


Tree=25
num_leaves=15
num_cat=0
split_feature=25 23 2 11 25 20 20 21 5 11 20 2 5 5
split_gain=4.08608e+10 3.97768e+10 1.52956e+11 3.79943e+10 4.48454e+10 5.32572e+10 1.33053e+11 5.27133e+10 4.25059e+10 3.06528e+10 5.71065e+10 4.75715e+10 5.12917e+10 5.32502e+10
threshold=0.81439334356688764 1.5000000000000002 38840.281750000009 1.0000000180025095e-35 0.84239987506050562 0.6272500000000002 0.80725000000000013 0.51450000000000018 4.0672500000000005 1.5000000000000002 0.12450000000000001 130.37400000000005 2.3355000000000001 4.0672500000000005
decision_type=2 2 2 2 2 2 2 2 2 2 2 2 2 2
left_child=-1 3 -3 -2 5 7 8 -5 -7 -6 -11 12 -12 -14
right_child=1 2 -4 4 9 6 -8 -9 -10 10 11 -13 13 -15
leaf_value=628.14340313946764 -64.485997100400581 -5902.0700097656254 1982.6720967741937 -3778.1567343750003 299.08728008212779 -3239.3459161931819 -456.12564264112905 534.41991987179483 -8335.1511874999997 -3538.1457135416667 525.32112548828127 104.9199982163242 -5745.7742934782609 -1422.5599360795457
leaf_count=648 21032 32 31 20 4977 22 124 195 20 30 64 1752 23 88
internal_value=0 -179.091 -25278.5 -123.308 1839.77 -8723.08 -22178.3 1665.62 -70824 2420.17 -932.819 -258.807 -15979.8 -28979.5
internal_count=29058 28410 63 28347 7315 381 166 215 42 6934 1957 1927 175 111
shrinkage=0.08


Tree=26
num_leaves=15
num_cat=0
split_feature=8 7 22 21 21 20 14 1 14 25 0 25 5 24
split_gain=3.53534e+10 2.23215e+10 3.259e+10 2.21049e+10 3.4683e+10 4.79872e+10 5.61242e+10 4.96046e+10 4.16493e+10 3.67411e+10 3.53026e+10 3.32097e+10 3.25834e+10 3.28095e+10
threshold=1.0000000180025095e-35 7.5000000000000009 5.5000000000000009 1.0651329571049566 0.43325000000000008 0.12450000000000001 1.0000000180025095e-35 47108.422500000008 1.0000000180025095e-35 0.86747049726694836 8.5000000000000018 0.8710576165916204 154.31725000000003 1.78206364891798
decision_type=2 2 2 2 2 2 2 2 2 2 2 2 2 2
left_child=1 2 -1 4 5 6 7 9 -7 12 -6 -8 13 -2
right_child=3 -3 -4 -5 10 8 11 -9 -10 -11 -12 -13 -14 -15
leaf_value=-109.98780661079972 -1353.1897048611113 1668.4284236111112 -2795.2592025862068 -34.425068373885587 280.02709572859914 -31.899526587212772 -1537.1634309895835 -3764.7166796874999 829.85377332089558 452.76506549873739 -3086.5921015624999 -5951.1202421874996 -2713.0301603618423 1792.4332324218751
leaf_count=11329 63 45 29 7403 6057 3351 24 28 402 198 20 20 57 32
internal_value=0 -1372.48 -1460.55 886.459 1837.3 -381.763 -10492.1 -6557.55 755.082 -3317.44 3361.84 -44293.8 -15011.2 -3670.14
internal_count=29058 11403 11358 17655 10252 4175 422 378 3753 350 6077 44 152 95
shrinkage=0.08


Tree=27
num_leaves=15
num_cat=0
split_feature=25 23 2 11 25 20 20 21 24 25 24 14 4 5
split_gain=3.4627e+10 3.33063e+10 1.29009e+11 3.12863e+10 3.75103e+10 4.47392e+10 1.13055e+11 4.36984e+10 4.31547e+10 2.83662e+10 4.16531e+10 2.56965e+10 2.5065e+10 2.67499e+10
threshold=0.81439334356688764 1.5000000000000002 38840.281750000009 1.0000000180025095e-35 0.84239987506050562 0.6272500000000002 0.81741666666666679 0.51450000000000018 1.8380533358081497 0.91881031079756659 1.7347586180473762 2.5000000000000004 142596.35500000004 0.13550000000000004
decision_type=2 2 2 2 2 2 2 2 2 2 2 2 2 2
left_child=-1 3 -3 11 5 7 8 -5 -7 -6 -11 12 13 -2
right_child=1 2 -4 4 9 6 -8 -9 -10 10 -12 -13 -14 -15
leaf_value=578.2457462866513 -1399.9760372740964 -5413.7422119140629 1827.5293497983871 -3438.9679999999998 193.23999237554705 -7472.4463722826085 -352.82973915289261 487.56730689102568 -2516.4028053977272 -3954.1088972355769 -44.778403596698119 912.30849981936421 -146.33606528066244 42.580855837169466
leaf_count=648 83 32 31 20 6855 23 121 195 22 26 53 173 11435 9341
internal_value=0 -164.864 -23132.2 -113.82 1667.56 -7992.89 -20325.3 1528.85 -63118.6 2198.37 -16642.4 -733.391 -834.054 373.448
internal_count=29058 28410 63 28347 7315 381 166 215 45 6934 79 21032 20859 9424
shrinkage=0.08


Tree=28
num_leaves=15
num_cat=0
split_feature=13 20 24 1 20 2 1 24 5 5 25 5 20 24
split_gain=3.28785e+10 6.72175e+10 7.01993e+10 5.72469e+10 5.34159e+10 5.25873e+10 9.49e+10 5.13591e+10 4.17405e+10 3.99086e+10 3.46531e+10 3.20444e+10 4.82439e+10 3.17459e+10
threshold=1.0000000180025095e-35 0.56251923076923094 1.7924924682236771 149636.71100000004 0.61230123856491259 327.58550000000008 74602.297000000006 1.707577757765302 5.2745000000000006 27.933000000000003 0.81439334356688764 2.0186666666666668 0.77341666666666686 1.7479469394500737
decision_type=2 2 2 2 2 2 2 2 2 2 2 2 2 2
left_child=10 3 4 7 9 11 8 -2 -7 -3 -1 12 -4 -6
right_child=1 2 5 -5 13 6 -8 -9 -10 -11 -12 -13 -14 -15
leaf_value=628.95690012100169 -3114.943877840909 -4196.2361099137934 -5555.3494531249999 -3596.6148958333333 -201.94315843621399 -3441.8410937500003 -517.83317985372344 836.91049350565845 -8136.1714559659094 -988.05991869549416 11.031899820140453 -512.0716540727459 -1045.8210108418366 1048.4644802083333
leaf_count=594 22 29 22 21 972 27 47 486 22 172 26201 244 49 150
internal_value=0 -3660.23 -6670.47 6207.01 -3124.11 -18086.1 -38576 8322.09 -69368.7 -18136.6 309.128 -11841.6 -30539.2 -434.705
internal_count=29058 2263 1734 529 1323 411 96 508 49 201 26795 315 71 1122
shrinkage=0.08


Tree=29
num_leaves=15
num_cat=0
split_feature=23 2 13 20 24 1 20 20 21 25 3 3 24 21
split_gain=2.86248e+10 1.09193e+11 2.86036e+10 5.68929e+10 5.94167e+10 4.84538e+10 4.52112e+10 4.49331e+10 8.35417e+10 7.20679e+10 5.9036e+10 5.4406e+10 4.34703e+10 3.42587e+10
threshold=1.5000000000000002 38840.281750000009 1.0000000180025095e-35 0.56251923076923094 1.7924924682236771 149636.71100000004 0.61230123856491259 0.95716666666666683 0.95450000000000013 0.86693025128471424 200835.48950000005 185666.93050000005 1.707577757765302 0.34475000000000006
decision_type=2 2 2 2 2 2 2 2 2 2 2 2 2 2
left_child=2 -2 -1 5 6 12 -5 8 9 11 -9 13 -4 -6
right_child=1 -3 3 4 7 -7 -8 10 -10 -11 -12 -13 -14 -15
leaf_value=26.819931653776372 -4981.5253710937504 1680.4444556451613 -2865.748274147727 -1334.8566752176619 -5076.1576785714287 -3308.8857589285717 -31.994231283422462 1075.2699904725609 132.93619845360826 1426.75123046875 -3772.3298125000001 -432.07793402777781 769.95766589506184 -2673.8895770833333
leaf_count=26732 32 31 22 201 77 21 1122 82 97 24 20 36 486 75
internal_value=0 -21292.7 46.2643 -3367.41 -6136.84 5710.45 -2874.18 -16639.2 -22646.6 -33768.8 1559.5 -40356.4 7656.32 -48635.4
internal_count=29058 63 28995 2263 1734 529 1323 411 309 212 102 188 508 152
shrinkage=0.08


Tree=30
num_leaves=15
num_cat=0
split_feature=7 24 14 24 20 25 5 12 21 5 21 17 25 21
split_gain=2.81137e+10 2.306e+10 2.47105e+10 4.69539e+10 2.43824e+10 2.35027e+10 4.32604e+10 3.9612e+10 6.9383e+10 2.54731e+10 6.84353e+10 2.49074e+10 4.52493e+10 2.40028e+10
threshold=1.0000000180025095e-35 1.707577757765302 1.0000000180025095e-35 1.6920930299753778 1.0000000180025095e-35 0.86416000118608205 3.2030000000000003 2.5000000000000004 0.36725000000000008 584.70000000000016 2.4400000000000004 1.0000000180025095e-35 0.85858798696289862 0.93950000000000011
decision_type=2 2 2 2 2 2 2 2 2 2 2 2 2 2
left_child=1 2 -1 -4 -3 6 -6 9 -9 11 -11 -8 13 -13
right_child=-2 4 3 -5 5 -7 7 8 -10 10 -12 12 -14 -15
leaf_value=683.33300395764809 -95.231433338634432 -2556.5468410326089 1463.7395528017241 -2835.5639717060812 733.23756704757454 -12.008734858247424 209.02404290113185 -5355.142068452381 -495.89891883680554 138.04303288246268 -4840.5615169270832 1735.4574098557694 -4406.620877976191 -1514.6941690340909
leaf_count=608 11790 23 29 37 804 11640 3755 21 180 67 24 26 21 33
internal_value=0 812.76 6546.72 -11831 579.863 625.023 2454.78 1147.44 -12544.8 1848.44 -14687.4 2240.82 -15219.1 -1030.3
internal_count=29058 17268 674 66 16594 16571 4931 4127 201 3926 91 3835 80 59
shrinkage=0.08


Tree=31
num_leaves=15
num_cat=0
split_feature=5 20 21 24 5 23 3 20 24 20 11 21 25 15
split_gain=2.65903e+10 4.75554e+10 5.86975e+10 4.612e+10 4.37888e+10 5.53025e+10 8.62101e+10 8.06489e+10 3.50337e+10 4.11944e+10 3.60606e+10 3.23632e+10 4.53289e+10 3.16593e+10
threshold=0.22950000000000001 0.75525000000000009 0.38625000000000009 1.7145448537789616 1.1851666666666669 1.0000000180025095e-35 97540.626500000028 0.43416666666666676 1.7205345886161094 0.58958333333333346 1.0000000180025095e-35 0.82216666666666682 0.87133250911882276 1.0000000180025095e-35
decision_type=2 2 2 2 2 2 2 2 2 2 2 2 2 2
left_child=1 2 3 -1 5 -2 7 -7 11 -10 -11 12 -4 -6
right_child=4 -3 8 -5 13 6 -8 -9 9 10 -12 -13 -14 -15
leaf_value=-152.11818509615384 453.15441793662313 487.79164299242427 -1075.9612191133722 -4229.3072293526784 -28.838833733431695 -1006.9553314393939 659.36366837686569 -7101.8206119791666 1252.7782129854368 -3459.8531417410718 766.09043945312499 -398.97086751302089 -5307.3323768028849 665.6821132172131
leaf_count=26 2067 198 43 56 25840 33 67 24 103 28 24 96 26 427
internal_value=0 -6588.03 -12836.1 -36706.7 138.9 4433.9 -16078.2 -44665.2 -6719.21 4076.33 -18867.7 -16860.5 -33379.9 -219.358
internal_count=29058 600 402 82 28458 2191 124 57 320 155 52 165 69 26267
shrinkage=0.08


Tree=32
num_leaves=15
num_cat=0
split_feature=25 8 24 21 14 21 15 20 20 4 3 5 5 24
split_gain=2.48499e+10 2.56061e+10 2.69912e+10 5.57583e+10 7.22297e+10 8.81179e+10 4.25912e+10 4.10589e+10 6.9132e+10 4.86746e+10 4.18703e+10 4.02157e+10 4.25748e+10 3.90999e+10
threshold=0.81439334356688764 1.0000000180025095e-35 1.7924924682236771 0.95450000000000013 1.0000000180025095e-35 0.25150000000000006 1.0000000180025095e-35 0.94825000000000015 0.9191666666666668 11426.883500000002 145660.03250000006 4.580000000000001 2.0186666666666668 1.78206364891798
decision_type=2 2 2 2 2 2 2 2 2 2 2 2 2 2
left_child=-1 2 13 4 6 -6 7 8 9 -4 -10 12 -9 -2
right_child=1 -3 3 -5 5 -7 -8 11 10 -11 -12 -13 -14 -15
leaf_value=489.85497407889665 -83.944571254732296 49.780912606698493 -4242.0370250000005 207.2360440582483 -143.3471377840909 -7085.4272687500006 1404.0543346774193 2087.8300961538462 -6035.6292427884609 -646.80938852611951 -1713.52439453125 2180.5685255681819 -1808.0467160560345 850.1168549408784
leaf_count=648 9245 17280 25 588 22 25 62 26 26 670 32 55 58 296
internal_value=0 -139.663 -1322.6 -5138.51 -9678.6 -47949.3 -7793.15 -9554.71 -12469.7 -9701.68 -45637.7 6236.34 -7527.25 -687.078
internal_count=29058 28410 11130 1589 1001 47 954 892 753 695 58 139 84 9541
shrinkage=0.08


Tree=33
num_leaves=15
num_cat=0
split_feature=11 20 21 25 4 24 8 2 20 22 0 3 5 3
split_gain=2.41888e+10 2.79935e+10 6.45063e+10 3.87699e+10 4.31066e+10 3.63139e+10 3.23532e+10 3.33742e+10 2.75509e+10 3.03175e+10 7.8986e+10 2.56718e+10 3.14842e+10 3.48047e+10
threshold=1.0000000180025095e-35 0.89850000000000019 0.98825000000000018 0.87153575041548048 24060.551000000003 1.6988436896148564 1.0000000180025095e-35 37399.088500000005 0.94825000000000015 2.5000000000000004 3.5000000000000004 83615.540000000023 1.4885000000000004 109133.14650000002
decision_type=2 2 2 2 2 2 2 2 2 2 2 2 2 2
left_child=11 -2 3 8 -5 -6 -7 -8 9 -3 -11 -1 13 -13
right_child=1 2 -4 4 5 6 7 -9 -10 10 -12 12 -14 -15
leaf_value=75.033577545459025 211.66910906657563 -147.26322561331776 -3208.4170457848836 -3628.8186279296874 1504.3917569813832 153.05979403409091 -2256.1332069052419 481.636332347973 388.23174134887006 -5925.8108779761906 615.94286168981478 -537.61571192406143 -149.08461668490483 436.88504331420069
leaf_count=7603 5674 535 43 32 47 110 124 37 885 21 27 293 12451 1176
internal_value=0 1542 -1823.57 -918.121 -10375.7 -6855.23 -11305.5 -20337 1336.75 -4000.8 -28075.9 -539.839 -1346.98 3031.44
internal_count=29058 7535 1861 1818 350 318 271 161 1468 583 48 21523 13920 1469
shrinkage=0.08


Tree=34
num_leaves=15
num_cat=0
split_feature=5 20 21 24 21 21 7 5 23 3 20 21 20 20
split_gain=2.33678e+10 4.06708e+10 4.91584e+10 3.8831e+10 3.55414e+10 8.38869e+10 5.10626e+10 3.47146e+10 4.65082e+10 7.19664e+10 6.77181e+10 3.14197e+10 5.66971e+10 2.90436e+10
threshold=0.22950000000000001 0.75525000000000009 0.38625000000000009 1.7145448537789616 0.67850000000000021 0.76616666666666677 1.0000000180025095e-35 1.1851666666666669 1.0000000180025095e-35 97540.626500000028 0.43416666666666676 0.93950000000000011 0.60883281333690531 0.83425000000000016
decision_type=2 2 2 2 2 2 2 2 2 2 2 2 2 2
left_child=1 2 3 -1 -4 6 -6 8 -2 10 -10 -7 -13 -3
right_child=7 13 4 -5 5 11 -8 -9 9 -11 -12 12 -14 -15
leaf_value=-148.99489783653846 406.62742678852197 1403.5989578125 1145.4691749526517 -3890.1494252232142 -1364.3947282608694 709.94189268867922 -6695.1975679347825 -15.101842485342825 -926.4594034090909 589.14143306902986 -6511.3827799479168 -210.66635216346154 -4657.1592350260416 -534.31568877551024
leaf_count=26 2067 100 66 56 23 106 23 26267 33 67 24 78 24 98
internal_value=0 -6175.94 -11954 -33799.1 -6356.23 -11728.4 -50372.5 130.212 3954.39 -14856.2 -40975.1 -3182.09 -15711.2 5555.36
internal_count=29058 600 402 82 320 254 46 28458 2191 124 57 208 102 198
shrinkage=0.08


end of trees

feature importances:
touchX_mean=78
touchY_mean=58
longitude_mean=57
timeToClick_mean=55
latitude_mean=35
source_id_2=31
advertiser_id_2=23
diff_clicks=22
first_click_sec=20
mean_time_click=19
advertiser_id_1=17
source_id_0=17
last_click_sec=14
touchs_in_bottom2=14
source_id_3=10
source_id_1=8
touchs_in_bottom=6
n_clicks=2
source_id_4=2
advertiser_id_3=1
source_id_6=1

parameters:
[boosting: gbdt]
[objective: regression]
[metric: l2_root]
[tree_learner: serial]
[device_type: cpu]
[data: ]
[valid: ]
[num_iterations: 100]
[learning_rate: 0.08]
[num_leaves: 15]
[num_threads: 0]
[max_depth: -1]
[min_data_in_leaf: 20]
[min_sum_hessian_in_leaf: 0.001]
[bagging_fraction: 1]
[bagging_freq: 0]
[bagging_seed: 3]
[feature_fraction: 1]
[feature_fraction_seed: 2]
[early_stopping_round: 0]
[max_delta_step: 0]
[lambda_l1: 0]
[lambda_l2: 0]
[min_gain_to_split: 0]
[drop_rate: 0.1]
[max_drop: 50]
[skip_drop: 0.5]
[xgboost_dart_mode: 0]
[uniform_drop: 0]
[drop_seed: 4]
[top_rate: 0.2]
[other_rate: 0.1]
[min_data_per_group: 100]
[max_cat_threshold: 32]
[cat_l2: 10]
[cat_smooth: 10]
[max_cat_to_onehot: 4]
[top_k: 20]
[monotone_constraints: ]
[feature_contri: ]
[forcedsplits_filename: ]
[refit_decay_rate: 0.9]
[verbosity: 0]
[max_bin: 100]
[min_data_in_bin: 3]
[bin_construct_sample_cnt: 200000]
[histogram_pool_size: -1]
[data_random_seed: 1]
[output_model: LightGBM_model.txt]
[snapshot_freq: -1]
[input_model: ]
[output_result: LightGBM_predict_result.txt]
[initscore_filename: ]
[valid_data_initscores: ]
[pre_partition: 0]
[enable_bundle: 1]
[max_conflict_rate: 0]
[is_enable_sparse: 1]
[sparse_threshold: 0.8]
[use_missing: 1]
[zero_as_missing: 0]
[two_round: 0]
[save_binary: 0]
[enable_load_from_binary_file: 1]
[header: 0]
[label_column: ]
[weight_column: ]
[group_column: ]
[ignore_column: ]
[categorical_feature: ]
[predict_raw_score: 0]
[predict_leaf_index: 0]
[predict_contrib: 0]
[num_iteration_predict: -1]
[pred_early_stop: 0]
[pred_early_stop_freq: 10]
[pred_early_stop_margin: 10]
[convert_model_language: ]
[convert_model: gbdt_prediction.cpp]
[num_class: 1]
[is_unbalance: 0]
[scale_pos_weight: 1]
[sigmoid: 1]
[boost_from_average: 1]
[reg_sqrt: 0]
[alpha: 0.9]
[fair_c: 1]
[poisson_max_delta_step: 0.7]
[tweedie_variance_power: 1.5]
[max_position: 20]
[label_gain: ]
[metric_freq: 1]
[is_provide_training_metric: 0]
[eval_at: ]
[num_machines: 1]
[local_listen_port: 12400]
[time_out: 120]
[machine_list_filename: ]
[machines: ]
[gpu_platform_id: -1]
[gpu_device_id: -1]
[gpu_use_dp: 0]

end of parameters

pandas_categorical:[]
