tree
version=v2
num_class=1
num_tree_per_iteration=1
label_index=0
max_feature_idx=20
objective=regression
feature_names=n_auctions diff_auctions mean_time_auction first_auction_sec last_auction_sec last_auction_sec_to_end ref_type_id_1 ref_type_id_7 source_0 source_1 source_2 source_3 source_4 source_5 source_6 source_7 source_8 source_9 day_0 day_1 day_2
feature_infos=[1:13518] [0:259199.14539100003] [0:258206.78387400002] [0.0049199999999999999:259198.39196900002] [2.1936180000000003:259199.94743500001] [0.052565000000000001:259197.80638200001] [0:1] [0:1] [0:3452] [0:13518] [0:138] [0:3180] [0:864] [0:1569] [0:2683] [0:1946] [0:150] [0:20] [0:6024] [0:4160] [0:6024]
tree_sizes=1326 1341 1346 1350 1337 1346 1339 1346 1356 1355 1356 1345 1351 1356 1350 1356 1362 1358 1353 1360 1357 1355 1357 1352 1355 1360 1364 1357 1362 1364 1363 1369 1377 1376 1365 1380 1369 1366 1355 1378 1363 1375 1348 1351 1368 1353 1346 1349 1365 1376 1362 1352 1352 1366 1335 1366 1357 1345 1336 1361 1333 1351 1356 1331 1325 1324 1349 1346 1331 1320 1339 1349 1314 1344 1318 1328 1356 1319 1321 1326 1335 1350 1313 1329 1322 1346 1349 1349 1287 1324 1333 1340 1355 1310 1284 1311 1285 1315 1315 1308 1340 1362 1312 1346 1290 1298 1324 1305 1297 1358 1319 1260 1295 1281 1318 1306 1308 1283 1317 1315 1307 1276 1302 1355 1339 1316 1345 1347 1338 1283 1334 1287 1356 1287 1291 1268 1344 1290 1299 1315 1309 1290 1259 1342 1339 1298 1328 1264 1295 1334 1307 1347 1269 1287 1350 1274 1351 1310 1345 1352 1308 1268 1317 1306 1263 1315 1317 1256 1290 1285 1299 1317 1311 1310 1338 1270 1342 1268 1348 1334 1316 1305 1287 1286 1288 1299 1283 1309 1301 1267 1300 1309 1317 1295 1274 1342 1309 1343 1265 1285 1296 1326 1277 1302 1318 1299 1261 1271 1271 1299 1313 1322 1340 1344 1358 1271 1304 1329 1339 1305 1313 1308 1297 1257 1260 1275 1318 1294 1278 1304 1321 1334 1280 1278 1280 1315 1295 1335 1256 1264 1309 1294 1305 1307 1302 1299 1315 1261 1323 1293 1309 1270 1339 1338 1292 1317 1288 1274 1279 1329 1298 1337 1265 1258 1255 1268 1280 1290 1277 1328 1347 1316 1311 1281 1338 1288 1303 1305 1297 1305 1283 1292 1291 1277 1275 1314 1322 1295 1277 1268 1304 1345 1255 1255 1276 1338 1306 1313 1293 1314 1298 1299 1308 1297 1286 1289 1305 1319 1299 1335 1272 1276 1260 1298 1274 1299 1317 1271 1256 1273 1278 1306 1307 1294 1311 1270 1324 1306 1265 1267 1288 1326 1329 1300 1303 1285 1274 1306 1302 1283 1258 1299 1276 1271 1273 1302 1306 1292 1317 1310 1296 1310 1275 1294 1277 1287 1290 1273 1298 1313 1283 1249 1310 1276 1284 1273 1298 1269 1275 1263 1268 1276 1284 1265 1287 1298 1256 1315 1319 1290 1313 1322 1278 1263 1279 1260 1276 1268 1267 1274 1295 1299 1260 1303 1309 1273 1304 1261 1313 1257 1286 1284 1271 1331 1264 1279 1269 1271 1261 1304 1259 1272 1296 1278 1276 1267 1276 1332 1293 1317 1294 1290 1274 1293 1307 1300 1277 1300 1303 1284 1305 1267 1282 1301 1264 1274 1306 1269 1282 1286 1304 1321 1285 1324 1288 1292 1313 1311 1306 1303 1266 1270 1319 1290 1295 1263 1275 1303 1303 1298 1275 1256 1283 1272 1287 1273 1285 1277 1269 1317 1291 1294 1266 1263 1286 1294 1297 1278 1293 1320 1319 1294 1296 1266 1295 1281 1285 1276 1261 1276 1259 1285 1334 1297 1289 1279 1288 1292 1275 1284 1270 1270 1302 1289 1301 1295 1327 1296 1295 1287 1290 1290 1310 1280 1282 1273 1274 1275 1268 1267 1258 1307 1306 1290 1286 1266 1286 1298 1281 1304 1286 1268 1263 1269 1301 1296 1271 1284 1302 1274 1295 1294 1285 1266 1269 1295 1303 1289 1282 1301 1289 1277 1272 1271 1267 1311 1292 1302 1315 1292 1292 1277 1303 1296 1261 1319 1280 1291 1317 1306 1288 1287 1288 1270 1302 1271 1320 1286 1299 1291 1316 1309 1277 1298 1291 1268 1283 1278 1304 1298 1274 1248 1278 1268 1269 1258 1277 1257 1326 1298 1313 1332 1275 1259 1266 1287 1275 1281 1281 1312 1300 1277 1282 1281 1280 1274 1293 1333 1284 1327 1276 1274 1281 1273 1272 1265 1268 1299 1300 1270 1308 1307 1260 1297 1275 1279 1276 1263 1276 1266 1261 1292 1303 1289 1301 1291 1254 1284 1273 1299 1302 1327 1263

Tree=0
num_leaves=15
num_cat=0
split_feature=1 20 1 1 5 1 4 19 5 19 4 19 5 1
split_gain=1.44168e+15 2.3769e+14 1.34481e+14 7.38257e+13 5.20364e+13 3.4548e+13 3.27782e+13 2.31729e+13 1.52185e+13 1.31159e+13 1.26745e+13 9.6214e+12 8.14772e+12 8.02657e+12
threshold=66630.07730400002 2.5000000000000004 2478.5549850000007 190927.00927000007 70876.740812000018 159151.89285200005 180920.87930250005 1.5000000000000002 8085.1743475000012 1.0000000180025095e-35 253902.53664550005 1.5000000000000002 9621.2875600000025 99012.424658500022
decision_type=2 2 2 2 2 2 2 2 2 2 2 2 2 2
left_child=2 5 6 8 12 13 -1 -5 -3 -7 -9 -10 -4 -2
right_child=1 3 4 7 -6 9 -8 10 11 -11 -12 -13 -14 -15
leaf_value=99854.74892789204 95868.225708104175 90923.079864498883 92575.973049899927 91867.049809868753 97454.150703665015 94619.69759394908 98091.48000204844 90208.439346672167 93943.857124070317 92443.344690641403 88723.841373455143 92344.348441372815 94903.422707974547 94647.095944519271
leaf_count=227025 64905 35906 13338 34110 101489 26103 96006 83758 33812 55199 65652 83520 34591 73418
internal_value=0 -34494.7 40623 -51186.4 15816 -8900.82 52097.4 -64716.1 -34983.1 -25260.2 -70085.1 -29470.3 -11339.8 714.727
internal_count=1028832 556383 472449 336758 149418 219625 323031 183520 153238 81302 149410 117332 47929 138323
shrinkage=1


Tree=1
num_leaves=15
num_cat=0
split_feature=1 20 1 1 5 1 4 19 4 19 5 1 5 19
split_gain=1.22066e+15 2.09423e+14 1.0495e+14 6.41593e+13 3.87355e+13 3.13997e+13 2.96623e+13 2.07697e+13 1.30848e+13 1.1859e+13 1.0004e+13 8.95471e+12 7.90519e+12 7.6913e+12
threshold=62562.538130000008 2.5000000000000004 3362.1941080000006 187776.01589050004 78294.010084000023 164909.19313100004 182493.11732950003 3.5000000000000004 250376.34986100005 1.0000000180025095e-35 5952.9833530000014 90246.335303500018 2531.4115795000007 1.0000000180025095e-35
decision_type=2 2 2 2 2 2 2 2 2 2 2 2 2 2
left_child=2 5 6 8 -4 11 -1 -5 13 -7 -9 -2 -8 -3
right_child=1 3 4 7 -6 9 12 10 -10 -11 -12 -13 -14 -15
leaf_value=4281.2567791532365 880.57049281761363 -714.50061871437526 -654.95897930938702 -3380.8168477426984 2181.8450559217817 -545.28809501049341 -59.451589588775931 -5964.8784014134853 -3816.1207358965871 -2711.7458585149052 -4596.9108261238362 -404.26158462412286 2809.3858856500042 -2402.541564577446
leaf_count=236093 53289 21316 48828 52913 83462 24420 6603 65157 37045 47869 72044 99612 89061 91120
internal_value=0 -31222.3 38000.2 -46903 14184.8 -7575.22 47496.7 -59091 -31401.8 -24748.7 -65582 544.095 32642.1 -26031.5
internal_count=1028832 564785 464047 339595 132290 225190 331757 190114 149481 72289 137201 152901 95664 112436
shrinkage=0.08


Tree=2
num_leaves=15
num_cat=0
split_feature=1 20 1 1 5 1 4 19 5 5 19 5 19 5
split_gain=1.03321e+15 1.70188e+14 9.68602e+13 5.31897e+13 3.80034e+13 2.49739e+13 2.3837e+13 1.84634e+13 1.1094e+13 1.0582e+13 1.00375e+13 7.22799e+12 7.22015e+12 7.14422e+12
threshold=66630.07730400002 2.5000000000000004 2478.5549850000007 187776.01589050004 70876.740812000018 164909.19313100004 174344.39269550005 1.0000000180025095e-35 4075.0665530000006 4075.0665530000006 1.0000000180025095e-35 8085.1743475000012 1.5000000000000002 3529.205348500001
decision_type=2 2 2 2 2 2 2 2 2 2 2 2 2 2
left_child=2 5 6 8 13 -2 -1 -5 -3 -9 -7 -8 -10 -4
right_child=1 3 4 7 -6 10 11 9 12 -11 -12 -13 -14 -15
leaf_value=4019.6319268816424 -6.056032923099667 -4032.6521945237955 -3283.0397688230278 -2362.7458140246499 1943.7213048812555 -501.66484798736951 1045.5130485055874 -5501.0089466932031 -1090.6117751060672 -4170.5296494569748 -2494.8063131031272 2845.2692498564907 -2425.8236458018473 -407.02410989899198
leaf_count=214334 147336 20804 6376 25873 101489 24420 16913 60671 36515 103570 47869 91784 89325 41553
internal_value=0 -29201.9 34389.9 -43326 13336.8 -7545.07 44128 -54363.7 -29016.3 -58275.1 -22768.8 32065.4 -25479.8 -9870.26
internal_count=1028832 556383 472449 336758 149418 219625 323031 190114 146644 164241 72289 108697 125840 47929
shrinkage=0.08


Tree=3
num_leaves=15
num_cat=0
split_feature=1 1 20 1 5 5 1 19 19 5 1 1 19 15
split_gain=8.78733e+14 1.22836e+14 1.1193e+14 3.6799e+13 3.62708e+13 2.53002e+13 1.90391e+13 1.45373e+13 1.13167e+13 9.88042e+12 9.86116e+12 9.08296e+12 5.64969e+12 4.98598e+12
threshold=85843.409992000015 6321.6264600000013 3.5000000000000004 235402.26465200004 83102.096743000016 79793.963674500017 167456.56521500004 1.0000000180025095e-35 1.0000000180025095e-35 15811.722087000004 612.21340150000015 152874.72145150005 6.5000000000000009 1.0000000180025095e-35
decision_type=2 2 2 2 2 2 2 2 2 2 2 2 2 2
left_child=1 5 6 7 9 10 -2 -4 -8 -3 13 -9 -5 -1
right_child=2 4 3 12 -6 -7 8 11 -10 -11 -12 -13 -14 -15
leaf_value=2312.4730562732489 -384.82873725666485 -2045.2996526735178 -1171.0678492637844 -3684.8023484576756 1542.0379285516929 3611.8170810793872 -611.50002940449156 -2111.0307667276797 -2530.7596887615455 -106.31749944834905 693.0490493982868 -3458.925833951299 -5050.9923255147596 4179.7296355214321
leaf_count=74191 126838 25884 30457 26557 101989 241336 29112 44524 60573 48027 23585 113712 71607 10440
internal_value=0 28604.7 -29859 -42814.2 7051.18 39450.8 -12695.5 -34644.9 -23847 -9816.98 26745.9 -38495.7 -58517.3 31785.2
internal_count=1028832 525452 503380 286857 175900 349552 216523 188693 89685 73911 108216 158236 98164 84631
shrinkage=0.08


Tree=4
num_leaves=15
num_cat=0
split_feature=1 20 1 1 5 19 20 1 4 19 1 5 4 4
split_gain=7.44472e+14 1.4036e+14 5.37865e+13 4.99002e+13 2.6028e+13 1.51993e+13 1.47136e+13 1.36192e+13 1.10442e+13 8.22996e+12 7.82969e+12 7.74217e+12 7.03695e+12 5.16742e+12
threshold=53544.099679000014 1.5000000000000002 1380.3655285000002 194589.21036250005 83102.096743000016 2.5000000000000004 1.0000000180025095e-35 111686.80123350002 251834.54643650007 1.5000000000000002 128200.87000950002 10440.980478000003 249588.81254400004 258632.08658600005
decision_type=2 2 2 2 2 2 2 2 2 2 2 2 2 2
left_child=2 7 6 8 11 -5 -1 -2 9 -3 -11 -4 -7 -8
right_child=1 3 4 5 -6 12 13 -9 -10 10 -12 -13 -14 -15
leaf_value=3455.7036187312906 649.85633360562178 -765.12300953533622 -1885.4365909462056 -2450.243804409276 2033.78915412793 -3404.7160412893681 2359.1251132957846 -720.90672287800055 -3029.50979535133 -1034.2163838433851 -2470.6215165205176 339.05124695196952 -4543.6893268958956 -2048.3535714994946
leaf_count=200425 87959 54710 13156 49562 86266 58958 103204 98152 41270 37232 69852 41920 84435 1731
internal_value=0 -23564.1 30708.1 -34209 14579.4 -45724.4 38173.6 -913.28 -23266.8 -19542.1 -24640 -2403.9 -50942.3 28580.2
internal_count=1028832 582130 446702 396019 141342 192955 305360 186111 203064 161794 107084 55076 143393 104935
shrinkage=0.08


Tree=5
num_leaves=15
num_cat=0
split_feature=1 1 20 4 4 4 1 19 19 0 1 1 4 20
split_gain=6.31895e+14 9.36734e+13 7.90808e+13 2.7361e+13 2.59495e+13 1.88683e+13 1.60655e+13 1.02442e+13 8.76829e+12 7.3955e+12 6.78964e+12 6.3693e+12 6.33436e+12 5.54641e+12
threshold=87890.047827500021 6321.6264600000013 4.5000000000000009 195074.72367350003 248767.87254300006 210633.70132200004 171921.20307950003 1.0000000180025095e-35 1.0000000180025095e-35 58.500000000000007 171921.20307950003 471.20822400000009 92692.997522500023 14.500000000000002
decision_type=2 2 2 2 2 2 2 2 2 2 2 2 2 2
left_child=1 5 6 12 8 -1 -2 -8 -4 -6 -10 -7 -3 -5
right_child=2 3 4 13 9 11 7 -9 10 -11 -12 -13 -14 -15
leaf_value=2971.812383855186 -442.60982486778806 1864.4778334905386 -790.15885993407312 -441.57959726780155 -3138.7606646432723 1930.976429294519 -564.21996297930116 -2339.1845108052016 -1663.8011322633897 -4366.5275320326291 -2988.2528051345648 141.98971755332602 685.0212560013731 -2108.0693602737151
leaf_count=279589 138014 45091 22332 37841 55406 53219 30231 66780 37894 72466 71534 16744 82390 19301
internal_value=0 23848.5 -25753.7 5627.17 -37783.6 33472.4 -12464.3 -22325.8 -27934.8 -47931.8 -31620.1 18785.3 13777.6 -12555.9
internal_count=1028832 534175 494657 184623 259632 349552 235025 97011 131760 127872 109428 69963 127481 57142
shrinkage=0.08


Tree=6
num_leaves=15
num_cat=0
split_feature=1 20 20 1 1 1 19 1 1 5 20 15 14 5
split_gain=5.34993e+14 1.02841e+14 3.91073e+13 3.68404e+13 1.48886e+13 1.3716e+13 1.26166e+13 1.06922e+13 9.74066e+12 6.9602e+12 6.20192e+12 5.91275e+12 6.24676e+12 5.11612e+12
threshold=53544.099679000014 1.5000000000000002 1.5000000000000002 233180.31607250005 1045.0276910000005 8479.4210340000027 1.5000000000000002 145556.96370600004 102662.81333850003 3011.5144550000009 16.500000000000004 1.0000000180025095e-35 1.0000000180025095e-35 166531.03593700004
decision_type=2 2 2 2 2 2 2 2 2 2 2 2 2 2
left_child=2 8 5 6 -4 11 -3 -8 -2 -6 -5 12 13 -1
right_child=1 3 4 10 9 -7 7 -9 -10 -11 -12 -13 -14 -15
leaf_value=2098.9671794049314 625.5027074065099 -1047.4454381326891 1749.5007503463858 -2852.834249836972 -2765.9971240205282 1344.3438933242026 -1287.2122274051871 -2594.9538235485184 -545.07635584721606 144.98294264166051 -4029.651580490151 3629.52463438934 3975.7217510263326 2857.517427998408
leaf_count=119826 79194 89865 48988 50529 5874 55352 57423 131978 106917 50032 66224 39443 18817 108370
internal_value=0 -19975.6 26031.7 -29087.4 9141.47 31215 -22851 -27480.9 -587.141 -2010.89 -44004.3 33999.6 32184.1 30740
internal_count=1028832 582130 446702 396019 104894 341808 279266 189401 186111 55906 116753 286456 247013 228196
shrinkage=0.08


Tree=7
num_leaves=15
num_cat=0
split_feature=1 1 1 5 19 4 4 19 4 4 11 9 13 4
split_gain=4.5371e+14 6.74233e+13 5.86053e+13 2.03258e+13 1.98837e+13 1.53217e+13 1.51448e+13 1.032e+13 7.24444e+12 6.26e+12 5.75174e+12 5.68765e+12 5.30729e+12 4.64194e+12
threshold=87890.047827500021 6321.6264600000013 182489.36950500004 83102.096743000016 1.5000000000000002 183907.62021050006 239273.65861900002 1.5000000000000002 256190.51277750006 247104.76155400006 1.0000000180025095e-35 1.0000000180025095e-35 1.0000000180025095e-35 258893.48666000002
decision_type=2 2 2 2 2 2 2 2 2 2 2 2 2 2
left_child=1 6 5 9 -4 -2 10 -7 -6 -3 11 12 -1 -8
right_child=2 3 4 -5 8 7 13 -9 -10 -11 -12 -13 -14 -15
leaf_value=3051.9276017690522 -95.627530409228726 -148.87872366103886 -1379.3213805356427 1098.9895961144723 -2716.9202588426251 -420.60462625052219 988.25027749633875 -1842.803296987465 -3826.8552978238358 -1736.640025987519 1641.2817717621315 2226.0954505195327 -183.24175349308894 -3602.2445344700013
leaf_count=130642 97742 55938 62277 106486 132699 48212 39493 101193 52534 22199 46459 128168 3328 1462
internal_value=0 20208.2 -21822.6 4749.36 -32699.3 -10929.9 28373.1 -17298.4 -37896.4 -7499.59 30771 32588.5 37144.5 10304.8
internal_count=1028832 534175 494657 184623 247510 247147 349552 149405 185233 78137 308597 262138 133970 40955
shrinkage=0.08


Tree=8
num_leaves=15
num_cat=0
split_feature=1 20 20 4 20 1 1 0 0 1 5 15 14 19
split_gain=3.84866e+14 7.59894e+13 2.93801e+13 2.27022e+13 1.68117e+13 1.08627e+13 9.70853e+12 9.24709e+12 8.13992e+12 6.89608e+12 5.37346e+12 4.60859e+12 5.09906e+12 4.41579e+12
threshold=53544.099679000014 3.5000000000000004 1.5000000000000002 246189.77424000003 1.0000000180025095e-35 1045.0276910000005 8479.4210340000027 4.5000000000000009 39.500000000000007 169768.39872800003 3529.205348500001 1.0000000180025095e-35 1.0000000180025095e-35 1.0000000180025095e-35
decision_type=2 2 2 2 2 2 2 2 2 2 2 2 2 2
left_child=2 4 6 9 -2 -4 11 -6 -5 -3 -7 12 -1 -11
right_child=1 3 5 8 7 10 -8 -9 -10 13 -12 -13 -14 -15
leaf_value=2080.5682471143928 374.39028817599888 -831.73294612098289 1464.8518719093197 -2159.2795377110433 -64.077543523977582 -2307.8710872163783 1155.8241029908586 -1338.80876716226 -3321.0794032102058 -752.24958970201999 120.4024212969516 3116.1754782177763 3450.7110387548496 -2218.8207379804571
leaf_count=228196 111179 59692 48988 63335 55326 6615 55352 106584 98808 16119 49291 39443 18817 71087
internal_value=0 -16942.7 22079.2 -27682.8 -4788.57 7439.46 26571.9 -11290.3 -35840.8 -18678.1 -2086.5 28914.6 27311.8 -24346.8
internal_count=1028832 582130 446702 309041 273089 104894 341808 161910 162143 146898 55906 286456 247013 87206
shrinkage=0.08


Tree=9
num_leaves=15
num_cat=0
split_feature=1 1 20 5 4 1 5 19 5 19 19 4 20 1
split_gain=3.27798e+14 5.08978e+13 4.26758e+13 2.00743e+13 1.29482e+13 1.19047e+13 8.3106e+12 6.98434e+12 6.60665e+12 5.10943e+12 5.07978e+12 4.94651e+12 4.50374e+12 3.87243e+12
threshold=90246.335303500018 1380.3655285000002 7.5000000000000009 57011.103159000013 254527.59281650005 180125.04246600004 70876.740812000018 1.0000000180025095e-35 169584.24674350003 1.0000000180025095e-35 1.5000000000000002 257580.43680900006 1.0000000180025095e-35 182489.36950500004
decision_type=2 2 2 2 2 2 2 2 2 2 2 2 2 2
left_child=1 6 5 11 9 10 -1 -7 -5 -4 -2 -3 -12 -11
right_child=2 3 4 8 -6 7 -8 -9 -10 13 12 -13 -14 -15
leaf_value=1313.1656994644063 168.02361642338957 -479.8778328882936 -714.04826615483921 582.75703966649746 -3227.1928303381183 -471.34095640995571 2275.8484551593847 -1914.3259097400655 1640.6254675019836 -1512.4108857066021 -169.01353874257603 -2813.1704936186261 -1192.8173615388278 -2471.2888715374711
leaf_count=76613 57584 60165 19598 114456 73696 29600 228747 78136 56402 43141 47965 6437 64449 71843
internal_value=0 16889.9 -18864.1 5909.12 -29684.9 -10749.3 25429 -18973.4 11649.6 -23850.3 -5537.36 -8817.35 -9449.74 -26394.1
internal_count=1028832 542820 486012 237460 208278 277734 305360 107736 170858 134582 169998 66602 112414 114984
shrinkage=0.08


Tree=10
num_leaves=15
num_cat=0
split_feature=1 1 20 5 5 4 0 19 4 1 11 9 13 20
split_gain=2.77671e+14 5.01436e+13 3.22406e+13 1.39422e+13 1.16946e+13 1.14173e+13 7.77595e+12 6.07669e+12 5.42211e+12 5.33446e+12 4.58473e+12 4.47831e+12 4.42043e+12 4.1081e+12
threshold=99012.424658500022 8479.4210340000027 5.5000000000000009 19936.813048000004 3529.205348500001 239273.65861900002 4.5000000000000009 1.0000000180025095e-35 92692.997522500023 182489.36950500004 1.0000000180025095e-35 1.0000000180025095e-35 1.0000000180025095e-35 9.5000000000000018
decision_type=2 2 2 2 2 2 2 2 2 2 2 2 2 2
left_child=1 5 6 13 -4 10 -2 -6 -5 -8 11 12 -1 -3
right_child=2 3 4 8 7 -7 9 -9 -10 -11 -12 -13 -14 -15
leaf_value=2445.737369740516 99.336019398983581 -349.02672718461378 -3018.8522764544759 1291.4264879420668 -617.98355332025062 525.18603710361413 -672.75792827517637 -1970.4649815869393 251.0025358233602 -1563.4226587994738 1203.8688554931707 1718.992551837099 -494.12956407367403 -2008.4698259303311
leaf_count=132879 49580 19035 66892 42577 25079 42445 106390 139657 129748 72273 48147 131618 3356 19156
internal_value=0 14769.6 -18273.3 2519.65 -26584.9 21964.1 -9838.36 -22057.1 6350.8 -12913.1 24032.5 25647.4 29666.5 -14767.2
internal_count=1028832 568961 459871 210516 231628 358445 228243 164736 172325 178663 316000 267853 136235 38191
shrinkage=0.08


Tree=11
num_leaves=15
num_cat=0
split_feature=1 4 0 20 5 5 1 1 0 19 1 4 1 11
split_gain=2.35256e+14 4.93706e+13 2.19992e+13 1.94328e+13 9.24506e+12 7.30313e+12 5.98418e+12 5.9747e+12 5.20034e+12 4.33417e+12 3.91792e+12 3.63205e+12 3.06847e+12 2.83201e+12
threshold=53544.099679000014 191237.27101700005 16.500000000000004 1.5000000000000002 2063.4539770000006 1213.8763990000002 1045.0276910000005 14070.137718000004 3.5000000000000004 1.5000000000000002 230669.33446700004 89646.056579500015 111686.80123350002 1.0000000180025095e-35
decision_type=2 2 2 2 2 2 2 2 2 2 2 2 2 2
left_child=3 9 8 7 -4 -5 -7 11 -3 -2 -6 -1 -11 -13
right_child=1 2 4 5 10 6 -8 -9 -10 12 -12 13 -14 -15
leaf_value=2111.8105969962398 579.87701944005028 184.71746121870342 -2975.962686808296 -2607.2043318015021 -1497.8165719877832 1227.8571489571018 -11.277160269502362 808.90355933063097 -1024.1949581005197 160.27027257672523 -2241.7197595466764 1685.3304977331757 -649.56866336491362 732.07113615716253
leaf_count=133799 61683 27768 51679 4838 122826 47362 52694 44513 126602 59758 71797 140243 60017 23253
internal_value=0 -13246.4 -19443.9 17262.3 -25310.1 5356.11 7190.91 20916.1 -10084.2 438.175 -22153.1 22533.9 -3069.06 19371.9
internal_count=1028832 582130 400672 446702 246302 104894 100056 341808 154370 181458 194623 297295 119775 163496
shrinkage=0.08


Tree=12
num_leaves=15
num_cat=0
split_feature=1 1 20 5 4 5 19 4 15 14 20 4 3 4
split_gain=2.00381e+14 3.77319e+13 2.29253e+13 1.25985e+13 7.35804e+12 7.087e+12 7.04874e+12 6.10146e+12 4.52611e+12 4.23912e+12 4.03462e+12 3.77359e+12 3.71963e+12 3.04679e+12
threshold=102662.81333850003 3362.1941080000006 8.5000000000000018 69460.196787000008 241398.07068150004 11274.245608000003 1.5000000000000002 174344.39269550005 1.0000000180025095e-35 1.0000000180025095e-35 14.500000000000002 92692.997522500023 94107.718389000016 257986.50692200006
decision_type=2 2 2 2 2 2 2 2 2 2 2 2 2 2
left_child=1 5 6 10 -4 -1 -2 -8 9 12 -3 -5 -7 -6
right_child=2 3 4 11 13 8 7 -9 -10 -11 -12 -13 -14 -15
leaf_value=194.69535244983734 -232.63490308706173 -178.97085104298037 -1199.3724459264909 1207.0322224888832 -2043.5542023144262 1799.8070950134381 -204.11514318543928 -1359.9343428638263 2428.3221280976591 2649.5622898831707 -1368.5050400313996 381.06690249159476 1171.5844592473547 -2931.6619374580118
leaf_count=23194 96154 56458 59984 52117 96699 103809 37955 127161 40918 19858 26964 110369 143978 33214
internal_value=0 12333.5 -15791.6 2946.23 -24152.9 19291.7 -9714.4 -13678.1 20558.8 19061.3 -7043.21 8074.92 17934.7 -28382.6
internal_count=1028832 577665 451167 245908 189897 331757 261270 165116 308563 267645 83422 162486 247787 129913
shrinkage=0.08


Tree=13
num_leaves=15
num_cat=0
split_feature=1 1 5 4 19 1 20 1 4 15 14 19 19 1
split_gain=1.69744e+14 3.9858e+13 1.27814e+13 1.22413e+13 1.00435e+13 6.27385e+12 5.1121e+12 4.34536e+12 3.88471e+12 3.72369e+12 4.36844e+12 3.33674e+12 2.82519e+12 2.73315e+12
threshold=38222.127195500005 180125.04246600004 12106.125585000003 179418.19718750005 1.0000000180025095e-35 803.39397150000025 16.500000000000004 243331.30866850005 258893.48666000002 1.0000000180025095e-35 1.0000000180025095e-35 1.5000000000000002 1.0000000180025095e-35 471.20822400000009
decision_type=2 2 2 2 2 2 2 2 2 2 2 2 2 2
left_child=2 3 8 11 -3 9 12 -6 13 10 -4 -2 -5 -1
right_child=1 4 5 6 7 -7 -8 -9 -10 -11 -12 -13 -14 -15
leaf_value=674.47328106958685 774.01553010155658 -550.4807040252407 1370.7645193030855 122.81472435739143 -1588.7149966776758 883.43083277961841 -1435.1019358029068 -2358.257361252704 -3408.3160346291775 2341.2294324278428 2721.6636270684326 -24.093044674240559 -675.42121355354857 -771.85135209180726
leaf_count=18187 51002 46560 214569 37272 138643 117336 47187 71016 2272 36067 16498 97840 118904 15479
internal_value=0 -10677.2 15452.3 -3773.79 -20166.8 17138 -8817.42 -23117.2 -2582.41 19815.3 18340.2 3117.32 -6061.49 118.502
internal_count=1028832 608424 420408 352205 256219 384470 203363 209659 35938 267134 231067 148842 156176 33666
shrinkage=0.08


Tree=14
num_leaves=15
num_cat=0
split_feature=1 1 20 4 19 4 4 5 4 4 20 15 11 9
split_gain=1.44945e+14 2.81567e+13 1.67731e+13 7.90195e+12 7.39831e+12 7.34115e+12 5.006e+12 4.24917e+12 3.9053e+12 3.0223e+12 2.95507e+12 2.71113e+12 2.61521e+12 2.52738e+12
threshold=106720.29688100003 11035.144281000003 16.500000000000004 240351.55058750004 1.5000000000000002 182493.11732950003 176112.60407600005 6637.6748590000016 258321.51006200004 100979.60791800002 12.500000000000002 1.0000000180025095e-35 1.0000000180025095e-35 1.0000000180025095e-35
decision_type=2 2 2 2 2 2 2 2 2 2 2 2 2 2
left_child=1 5 4 9 -2 12 -6 -4 11 -3 -5 -7 13 -1
right_child=2 3 7 10 6 8 -8 -9 -10 -11 -12 -13 -14 -15
leaf_value=1858.5411189002325 -230.70471628077149 842.74637687773338 -2304.7021374699902 -307.37498632335667 -218.26013983021522 630.23413711709588 -1243.0280669903448 -1400.7642272473095 -1941.9431971767956 121.55574998529252 -1701.4388323146848 1865.6724337929199 887.43356207738543 1316.1081399583738
leaf_count=111536 106702 52590 65254 22281 37419 90853 165196 67927 3474 126993 17278 12994 39930 108405
internal_value=0 10311.3 -13663 1341.06 -9623.1 15664.7 -13172.2 -23045.8 8706.93 4159.41 -11453.2 9810.25 18538.1 19889.8
internal_count=1028832 586334 442498 219142 309317 367192 202615 133181 107321 179583 39559 103847 259871 219941
shrinkage=0.08


Tree=15
num_leaves=15
num_cat=0
split_feature=1 1 5 4 19 20 4 20 4 4 15 14 13 0
split_gain=1.22955e+14 2.61957e+13 1.36664e+13 1.07917e+13 6.13131e+12 4.63744e+12 4.39132e+12 3.80711e+12 3.18786e+12 2.87634e+12 2.28443e+12 2.79161e+12 2.17845e+12 2.10541e+12
threshold=117339.23616400002 1045.0276910000005 12106.125585000003 237030.81422050003 2.5000000000000004 24.500000000000004 95473.467019000018 1.0000000180025095e-35 258632.08658600005 183907.62021050006 1.0000000180025095e-35 1.0000000180025095e-35 1.0000000180025095e-35 2.5000000000000004
decision_type=2 2 2 2 2 2 2 2 2 2 2 2 2 2
left_child=1 7 5 6 13 -2 -3 -1 -5 -6 11 -9 -8 -4
right_child=2 3 4 8 9 -7 12 10 -10 -11 -12 -13 -14 -15
leaf_value=1476.6208071063488 -1257.4816734057981 985.11600828821906 937.56830701793092 -575.57451730366881 -392.28245018131139 -2112.2676672414668 303.41290900463304 612.41662043058341 -2781.1390510311671 -1205.5599776494025 1907.1084163847845 2375.3064604465299 -965.67066209616087 -320.23015313252625
leaf_count=194766 100543 70354 9341 56100 36959 68156 167964 83495 4533 112701 12047 6174 9127 96572
internal_value=0 9158.07 -13049.7 2700.57 -8438.57 -20035.3 5630.32 15868.1 -9255.82 -12559 10909.5 9172.47 2975.08 -2616.23
internal_count=1028832 604560 424272 308078 255573 168699 247445 296482 60633 149660 101716 89669 177091 105913
shrinkage=0.08


Tree=16
num_leaves=15
num_cat=0
split_feature=1 20 5 4 20 19 1 9 11 11 9 13 8 4
split_gain=1.0438e+14 2.85708e+13 1.09684e+13 7.38033e+12 5.21507e+12 3.72042e+12 3.529e+12 3.20253e+12 4.11411e+12 3.12689e+12 2.98361e+12 3.42037e+12 2.87262e+12 2.79317e+12
threshold=22010.552399500004 1.5000000000000002 15811.722087000004 240351.55058750004 44.500000000000007 1.0000000180025095e-35 145556.96370600004 1.0000000180025095e-35 1.0000000180025095e-35 1.0000000180025095e-35 1.0000000180025095e-35 1.0000000180025095e-35 1.0000000180025095e-35 258893.48666000002
decision_type=2 2 2 2 2 2 2 2 2 2 2 2 2 2
left_child=3 7 4 9 -3 -4 -7 8 -2 10 11 12 -1 -5
right_child=1 2 5 13 -6 6 -8 -9 -10 -11 -12 -13 -14 -15
leaf_value=1847.2316748983962 861.87075846066307 -1181.473804995142 31.320590728733947 212.31778833641738 -2067.3974937116623 -285.55774563761787 -1075.9057101764222 -129.71550566550829 -407.0586339652981 599.85911215463841 1000.2927641141622 -965.8526632787798 1100.0977893807492 -2871.767444695955
leaf_count=89779 57941 154441 45800 45180 58684 56809 99461 139082 22782 55379 146036 3479 52018 1961
internal_value=0 -7932.41 -12812.9 12789.9 -17817.7 -7534.42 -9857.37 1286.54 6296.85 14386.2 15695.6 18904.3 19664.3 1050.3
internal_count=1028832 635000 415195 393832 213125 202070 156270 219805 80723 346691 291312 145276 141797 47141
shrinkage=0.08


Tree=17
num_leaves=15
num_cat=0
split_feature=1 1 19 5 1 5 3 19 0 11 4 9 13 8
split_gain=8.98403e+13 2.02458e+13 9.53319e+12 7.77551e+12 4.95344e+12 3.46436e+12 3.29044e+12 3.00761e+12 2.43312e+12 2.24169e+12 2.0326e+12 1.88087e+12 1.93436e+12 2.13606e+12
threshold=128200.87000950002 1380.3655285000002 2.5000000000000004 69460.196787000008 227986.31840100006 1620.8547635000002 88252.167302000031 1.0000000180025095e-35 3.5000000000000004 1.0000000180025095e-35 186881.94070450004 1.0000000180025095e-35 1.0000000180025095e-35 1.0000000180025095e-35
decision_type=2 2 2 2 2 2 2 2 2 2 2 2 2 2
left_child=1 6 8 5 10 -3 -1 -5 -2 11 -4 12 13 -8
right_child=2 3 4 7 -6 -7 9 -9 -10 -11 -12 -13 -14 -15
leaf_value=1424.4803130188482 340.63270753220633 -1834.167220811426 -400.05904385284902 910.41907811947442 -1628.9961140652028 -248.92542976677379 1592.8024505351304 245.21683316856965 -546.95439628665326 210.57911519966274 -1082.7096047426469 707.11353334314265 -1026.1191203777707 754.17700099048341
leaf_count=107811 23675 9678 36460 62058 107448 99860 56102 145469 119719 27908 119105 81449 2346 29744
internal_value=0 7550.93 -11564.5 1953.92 -15140.6 -4862.33 13362.5 5551.7 -5005.12 10937.5 -11533.9 12303.8 15503.7 16277.9
internal_count=1028832 622425 406407 317065 263013 109538 305360 207527 143394 197549 155565 169641 88192 85846
shrinkage=0.08


Tree=18
num_leaves=15
num_cat=0
split_feature=1 1 1 4 19 4 4 3 19 14 15 4 13 6
split_gain=7.6093e+13 1.60458e+13 9.01931e+12 6.98375e+12 5.48655e+12 4.57404e+12 2.7618e+12 2.6688e+12 2.34069e+12 2.10277e+12 2.39941e+12 1.81221e+12 1.8097e+12 1.57041e+12
threshold=117339.23616400002 1045.0276910000005 239506.56019350004 189753.16342850003 1.0000000180025095e-35 174344.39269550005 258321.51006200004 92160.20497050001 1.0000000180025095e-35 1.0000000180025095e-35 1.0000000180025095e-35 253250.40559000007 1.0000000180025095e-35 1.0000000180025095e-35
decision_type=2 2 2 2 2 2 2 2 2 2 2 2 2 2
left_child=1 7 4 8 -2 -6 -5 -1 -3 10 11 -9 -10 -12
right_child=2 3 -4 6 5 -7 -8 9 12 -11 13 -13 -14 -15
leaf_value=1306.4318972119754 35.056309042629486 844.96556003176534 -1499.6607529331127 -258.20721346097844 25.3615836215649 -922.189361887686 -2015.4107086020242 694.59755273749386 329.54136315270966 1843.4794588003238 2979.5935906870864 -431.77349467612709 -946.35172579546531 1202.7756788546485
leaf_count=111145 65356 64029 96809 98129 38160 223947 6079 139651 132322 11811 3775 9782 7519 20318
internal_value=0 7204.48 -10265.9 2150.55 -7758.99 -9802.95 -4508.93 12456.1 5554.54 10132.7 9253.92 7760.81 3261.74 18514.7
internal_count=1028832 604560 424272 308078 327463 262107 104208 296482 203870 185337 173526 149433 139841 24093
shrinkage=0.08


Tree=19
num_leaves=15
num_cat=0
split_feature=1 1 20 20 19 5 20 4 11 9 0 5 18 5
split_gain=6.45649e+13 1.48632e+13 7.65225e+12 4.45977e+12 4.39544e+12 4.34691e+12 3.27126e+12 2.31208e+12 1.99202e+12 2.08958e+12 1.9412e+12 1.79669e+12 1.65689e+12 1.57312e+12
threshold=128200.87000950002 14070.137718000004 22.500000000000004 15.500000000000002 1.0000000180025095e-35 8085.1743475000012 1.0000000180025095e-35 89646.056579500015 1.0000000180025095e-35 1.0000000180025095e-35 3.5000000000000004 1620.8547635000002 1.5000000000000002 4075.0665530000006
decision_type=2 2 2 2 2 2 2 2 2 2 2 2 2 2
left_child=1 5 4 8 -2 -1 -6 -7 9 10 -3 -4 -8 -5
right_child=2 3 11 13 6 7 12 -9 -10 -11 -12 -13 -14 -15
leaf_value=-274.98475606121275 13.750426575032295 1247.7012932574826 -1902.4275685815546 -1914.5625411380383 27.645827797762799 1158.0892036282037 -445.96875605965943 736.57637843626571 -255.91976471763334 83.445579557981816 303.77861228759662 -1165.2100410644018 -979.30449979003868 -557.98491444764056
leaf_count=21532 63472 23373 29107 7120 31163 133799 48963 220594 55377 102448 34563 77467 156235 23619
internal_value=0 6401.22 -9803.68 366.534 -7216.66 10358.3 -9200.76 11196.5 1972.02 3757.46 8557.29 -17081.9 -10650.5 -10902.6
internal_count=1028832 622425 406407 246500 299833 375925 236361 354393 215761 160384 57936 106574 205198 30739
shrinkage=0.08


Tree=20
num_leaves=15
num_cat=0
split_feature=1 1 4 4 19 4 6 14 11 1 20 13 15 5
split_gain=5.46477e+13 1.27659e+13 6.58962e+12 5.87895e+12 3.6144e+12 2.85841e+12 2.35914e+12 3.1606e+12 2.53715e+12 2.61113e+12 2.07869e+12 2.02774e+12 2.00675e+12 1.89599e+12
threshold=128200.87000950002 803.39397150000025 251834.54643650007 240351.55058750004 2.5000000000000004 100979.60791800002 1.0000000180025095e-35 1.0000000180025095e-35 1.0000000180025095e-35 3.8960915000000007 12.500000000000002 1.0000000180025095e-35 1.0000000180025095e-35 568.67761600000006
decision_type=2 2 2 2 2 2 2 2 2 2 2 2 2 2
left_child=1 6 4 5 -2 -3 12 8 11 -10 -5 -8 -1 -4
right_child=2 3 13 10 -6 -7 7 -9 9 -11 -12 -13 -14 -15
leaf_value=1177.6216064690921 -156.08803920096705 673.34937071587387 -1830.7494604948099 -189.52932113862909 -741.02795206874566 116.68652340632595 822.17001617602375 1807.4839655612991 -618.63545891571812 880.79494645669286 -1165.1540569018921 -1144.7659387811127 2733.0093729724458 -1050.1426656930141
leaf_count=41478 112576 85180 24884 32986 169250 192351 188931 17121 17922 12700 24253 3415 6088 99697
internal_value=0 5889.13 -9019.38 1691.1 -6342.16 3594.22 10774.7 9500.06 8494.66 40.3758 -7536.45 9840.6 17208.7 -15075.8
internal_count=1028832 622425 406407 334770 281826 277531 287655 240089 222968 30622 57239 192346 47566 124581
shrinkage=0.08


Tree=21
num_leaves=15
num_cat=0
split_feature=1 1 20 4 19 4 11 9 4 0 20 1 4 11
split_gain=4.67451e+13 1.40518e+13 4.63191e+12 4.27539e+12 2.79271e+12 2.72735e+12 2.44657e+12 2.88895e+12 2.15201e+12 1.78822e+12 1.58168e+12 1.46432e+12 1.37932e+12 1.33862e+12
threshold=22010.552399500004 187776.01589050004 1.5000000000000002 253250.40559000007 1.0000000180025095e-35 258321.51006200004 1.0000000180025095e-35 1.5000000000000002 89646.056579500015 3.5000000000000004 43.500000000000007 247032.02300250003 259093.58488600006 1.0000000180025095e-35
decision_type=2 2 2 2 2 2 2 2 2 2 2 2 2 2
left_child=3 2 6 8 -3 10 7 9 -1 -2 -4 -6 -5 -10
right_child=1 4 5 12 11 -7 -8 -9 13 -11 -12 -13 -14 -15
leaf_value=993.4090692308248 1196.2905330578201 -311.5960994123439 -264.77128288952974 -338.80373865425275 -907.81315081182072 -1801.4460277213295 -331.66507048169689 -5.2820356260120596 680.21297016861649 334.91679121390325 -978.19986404805434 -1394.5007154802117 -3396.7675973039832 163.94706863030999
leaf_count=138681 27599 39453 175936 17452 134384 8590 52705 82867 198341 34968 22423 56075 998 38360
internal_value=0 -5308.41 -1764.48 8559.08 -11552.6 -5073.19 1691.34 3806.72 9289.54 8935.98 -4317.74 -13138.8 -6302.69 7456.83
internal_count=1028832 635000 405088 393832 229912 206949 198139 145434 375382 62567 198359 190459 18450 236701
shrinkage=0.08


Tree=22
num_leaves=15
num_cat=0
split_feature=1 1 5 19 4 7 14 11 1 20 13 15 0 19
split_gain=3.97425e+13 1.02364e+13 5.15748e+12 4.9915e+12 2.5882e+12 2.1947e+12 2.65817e+12 1.9867e+12 2.42415e+12 1.90473e+12 1.76016e+12 1.74977e+12 1.71196e+12 1.56716e+12
threshold=141591.76305850004 471.20822400000009 79793.963674500017 4.5000000000000009 257580.43680900006 1.0000000180025095e-35 1.0000000180025095e-35 1.0000000180025095e-35 3.8960915000000007 35.500000000000007 1.0000000180025095e-35 1.0000000180025095e-35 4.5000000000000009 1.5000000000000002
decision_type=2 2 2 2 2 2 2 2 2 2 2 2 2 2
left_child=1 5 4 12 -3 6 7 10 -9 -5 -1 -7 -2 -4
right_child=3 2 13 9 -6 11 -8 8 -10 -11 -12 -13 -14 -15
leaf_value=711.86727114367761 194.5266970626877 -141.1204959107383 615.35741780940396 -747.86826434156319 -1440.5009811295804 1078.1096488028168 1656.4654335865889 -603.86481114342712 952.59771265836685 -1267.6182662919373 -1133.9396125519443 2572.5713647007806 -451.00700146817195 179.68539612549154
leaf_count=178053 32471 154295 94386 143818 10477 38494 15819 17922 9965 65759 3369 5765 138188 120051
internal_value=0 4758.77 1410.38 -8117.38 -2796.77 9472.21 8206.65 7261.99 -596.079 -11386.9 8469.88 15909.7 -4102.28 4643.12
internal_count=1028832 648596 379209 380236 164772 269387 225128 209309 27887 209577 181422 44259 170659 214437
shrinkage=0.08


Tree=23
num_leaves=15
num_cat=0
split_feature=1 1 20 11 0 9 5 4 13 18 6 14 11 1
split_gain=3.40207e+13 9.7923e+12 4.04599e+12 3.4041e+12 3.20572e+12 2.53275e+12 2.04172e+12 1.9588e+12 1.94147e+12 1.91765e+12 1.52158e+12 1.9359e+12 1.58715e+12 1.96366e+12
threshold=38222.127195500005 194589.21036250005 2.5000000000000004 1.0000000180025095e-35 3.5000000000000004 1.5000000000000002 1213.8763990000002 182493.11732950003 1.0000000180025095e-35 2.5000000000000004 1.0000000180025095e-35 1.0000000180025095e-35 1.0000000180025095e-35 0.70960950000000012
decision_type=2 2 2 2 2 2 2 2 2 2 2 2 2 2
left_child=2 3 8 4 5 -2 -4 -6 10 -3 -1 12 -12 -14
right_child=1 9 6 -5 7 -7 -8 -9 -10 -11 11 -13 13 -15
leaf_value=1083.8189827985696 1048.5756655520913 -273.23676721849955 -1760.4568623332741 -500.45550994130224 172.89090502618666 -183.16225744255851 110.17166989802088 -305.90446579648682 -562.47755660904465 -926.89181268258324 641.43179063529419 1323.8669839541358 -564.94678818616194 586.60059369488772
leaf_count=54229 30147 34261 3951 121439 90809 16549 68061 137469 8040 177750 224466 23097 16769 21795
internal_value=0 -4780.04 6917.78 -1846.15 101.279 7650.62 94.2254 -1443 8328.18 -10265.8 8691 7770.52 6999.72 1073.33
internal_count=1028832 608424 420408 396413 274974 46696 72012 228278 348396 212011 340356 286127 263030 38564
shrinkage=0.08


Tree=24
num_leaves=15
num_cat=0
split_feature=1 4 20 19 5 4 8 11 9 0 9 13 0 11
split_gain=2.90367e+13 9.79452e+12 3.55805e+12 2.97425e+12 2.92687e+12 1.91629e+12 1.76285e+12 1.66911e+12 1.74933e+12 1.49434e+12 1.40399e+12 1.32835e+12 1.26051e+12 1.0236e+12
threshold=17646.192497500004 241398.07068150004 19.500000000000004 1.5000000000000002 70876.740812000018 167929.91085300004 1.0000000180025095e-35 1.0000000180025095e-35 1.5000000000000002 6.5000000000000009 1.0000000180025095e-35 1.0000000180025095e-35 4.5000000000000009 17.500000000000004
decision_type=2 2 2 2 2 2 2 2 2 2 2 2 2 2
left_child=4 3 9 7 6 -5 10 8 -2 -3 -1 -6 -13 -4
right_child=1 2 13 5 11 -7 -8 -9 -10 -11 -12 12 -14 -15
leaf_value=774.72871003653449 717.45838289707683 -8.8239368901096871 -908.84847302252876 66.949251228887746 707.29163191892656 -404.2541419537597 -322.38855161272926 -253.21202087300298 71.010252297400029 -611.44681870113459 50.949842757656818 -1210.1339640401386 1086.9815170980414 -1450.5203343889016
leaf_count=33427 49325 34260 67440 82518 278263 167071 31137 37494 58642 113851 35231 4472 2323 33378
internal_value=0 -4106.89 -9019.86 -1011.13 6872.11 -3105.84 2211.24 2583.07 4579.27 -5900.65 5041.63 8503.81 -5310.27 -13602.3
internal_count=1028832 643979 248929 395050 384853 249589 99795 145461 107967 148111 68658 285058 6795 100818
shrinkage=0.08


Tree=25
num_leaves=15
num_cat=0
split_feature=20 5 1 19 1 9 13 6 14 0 4 15 8 5
split_gain=2.4893e+13 6.58368e+12 5.45193e+12 5.4356e+12 2.2964e+12 1.81343e+12 2.2368e+12 1.4519e+12 1.52645e+12 1.46739e+12 1.31533e+12 1.26905e+12 1.15869e+12 1.13893e+12
threshold=1.5000000000000002 2531.4115795000007 22010.552399500004 1.0000000180025095e-35 167456.56521500004 1.0000000180025095e-35 1.0000000180025095e-35 1.0000000180025095e-35 1.0000000180025095e-35 2.5000000000000004 258893.48666000002 1.0000000180025095e-35 1.0000000180025095e-35 61322.262298000009
decision_type=2 2 2 2 2 2 2 2 2 2 2 2 2 2
left_child=2 10 7 13 -5 6 -4 9 -9 11 -2 -1 -6 -3
right_child=1 3 5 4 12 -7 -8 8 -10 -11 -12 -13 -14 -15
leaf_value=1135.1420027520358 -886.63777584475906 -32.769311649568905 505.53673651906325 -191.35732531592569 -899.00886580373276 -96.127676723467502 -1038.3394412133962 468.78436457103396 1189.0167021787254 482.30052123286396 -1638.69515732945 2573.6725906263264 -481.22889766779724 454.18833518833316
leaf_count=23494 57640 106577 74188 102010 77760 139082 6535 239260 20442 20206 20065 4712 93662 43199
internal_value=0 -5049.74 4791.42 -3496.28 -6148.7 986.646 4756.89 7505.69 6568.45 12533.4 -13510.4 17193.2 -8384.26 1346.01
internal_count=1028832 500913 527919 423208 273432 219805 80723 308114 259702 48412 77705 28206 171422 149776
shrinkage=0.08


Tree=26
num_leaves=15
num_cat=0
split_feature=1 1 19 5 13 4 15 14 8 9 0 14 16 0
split_gain=2.13258e+13 6.34674e+12 3.45051e+12 3.26759e+12 1.92423e+12 1.68338e+12 1.68199e+12 1.7973e+12 1.60013e+12 1.47427e+12 1.43621e+12 1.38786e+12 1.26237e+12 1.24367e+12
threshold=156038.64831400005 471.20822400000009 1.0000000180025095e-35 9621.2875600000025 1.0000000180025095e-35 100979.60791800002 1.0000000180025095e-35 1.0000000180025095e-35 1.0000000180025095e-35 1.0000000180025095e-35 7.5000000000000009 1.0000000180025095e-35 1.0000000180025095e-35 8.5000000000000018
decision_type=2 2 2 2 2 2 2 2 2 2 2 2 2 2
left_child=1 6 -2 -3 5 -5 7 12 -4 11 -6 -7 -1 -13
right_child=2 3 8 4 10 9 -8 -9 -10 -11 -12 13 -14 -15
leaf_value=347.52213707234608 -1.8647314208387586 -597.2488347474366 -838.892813698699 482.45459156717334 -1502.4723604546055 232.14069125117089 1072.0311139713597 1287.8520096228174 -453.97599499527161 -55.150434170140954 -79.3993167635535 1872.9088285110554 923.74581795039603 -4.3916118046509363
leaf_count=189225 67909 43091 132564 88668 7551 78777 35745 16494 144422 175048 11378 6605 27923 3432
internal_value=0 3233.08 -6411.29 777.425 1733.66 2261.05 7011.99 6034.63 -7977.44 994.311 -8088.5 4312.78 5270.23 15387.4
internal_count=1028832 683937 344895 414550 371459 352530 269387 233642 276986 263862 18929 88814 217148 10037
shrinkage=0.08


Tree=27
num_leaves=15
num_cat=0
split_feature=4 0 2 5 14 15 11 15 19 9 11 0 6 6
split_gain=1.87063e+13 7.23498e+12 4.10518e+12 2.96929e+12 2.42221e+12 2.01711e+12 1.84881e+12 1.65338e+12 1.32939e+12 1.30137e+12 1.2679e+12 1.17867e+12 1.07903e+12 9.82089e+11
threshold=189753.16342850003 8.5000000000000018 492.63098184600011 1620.8547635000002 1.0000000180025095e-35 1.0000000180025095e-35 1.0000000180025095e-35 3.5000000000000004 1.5000000000000002 1.0000000180025095e-35 16.500000000000004 5.5000000000000009 1.0000000180025095e-35 1.0000000180025095e-35
decision_type=2 2 2 2 2 2 2 2 2 2 2 2 2 2
left_child=2 4 -1 -3 5 -2 8 10 -4 12 -5 13 -7 -8
right_child=1 3 6 7 -6 9 11 -9 -10 -11 -12 -13 -14 -15
leaf_value=571.93348595603197 -137.5703239223582 -1105.6097074836396 503.55318058774196 -306.08765955287498 1139.0476063068913 2450.5286618270052 1165.4165799218308 -920.25885905130247 66.07873941533154 -226.80087707756724 -858.62619527347783 -30.106176557443909 710.58448380243669 -935.64545424018809
leaf_count=255552 137854 52641 76662 216738 12680 2596 1548 41378 105819 8958 30294 49560 18804 17748
internal_value=0 -4202.1 4326.9 -6913.59 910.089 -94.5904 1457.3 -5653 3123.32 7284.62 -4673.08 -2957.95 11520.7 -9588.63
internal_count=1028832 521943 506889 341051 180892 168212 251337 288410 182481 30358 247032 68856 21400 19296
shrinkage=0.08


Tree=28
num_leaves=15
num_cat=0
split_feature=4 0 2 4 14 15 11 15 9 20 6 0 14 13
split_gain=1.58878e+13 6.32917e+12 3.19978e+12 2.82633e+12 2.2628e+12 2.26919e+12 1.45709e+12 1.45062e+12 1.31677e+12 1.21866e+12 1.16582e+12 1.02271e+12 8.81583e+11 8.29467e+11
threshold=186881.94070450004 6.5000000000000009 492.63098184600011 257137.39388800005 1.0000000180025095e-35 1.0000000180025095e-35 1.0000000180025095e-35 3.5000000000000004 1.0000000180025095e-35 43.500000000000007 1.0000000180025095e-35 5.5000000000000009 1.5000000000000002 1.0000000180025095e-35
decision_type=2 2 2 2 2 2 2 2 2 2 2 2 2 2
left_child=2 4 -1 7 5 -2 8 9 12 -3 -7 13 -4 -8
right_child=1 3 6 -5 -6 10 11 -9 -10 -11 -12 -13 -14 -15
leaf_value=532.23651942522895 -101.67057323226197 -233.87406719430669 443.98494420579709 -964.66344446363269 1246.1210926665774 2132.4335734379365 -440.00979540654015 -804.79686386227581 72.92160385110013 -683.83069397062184 514.56848000758941 -2.2817014509292721 1551.4370535152309 -1785.6856578244974
leaf_count=249281 124004 227864 59058 63046 10706 3244 14617 43995 108641 46361 23502 45857 4989 3667
internal_value=0 -3719.11 4152.23 -5941.38 1528.62 530.966 1520.03 -4729.5 3031.71 -3874.31 8884.97 -2549.92 6628.14 -8873.7
internal_count=1028832 542722 486110 381266 161456 150750 236829 318220 172688 274225 26746 64141 64047 18284
shrinkage=0.08


Tree=29
num_leaves=15
num_cat=0
split_feature=1 1 19 5 13 6 11 1 8 13 9 11 4 4
split_gain=1.3583e+13 4.0415e+12 2.50659e+12 2.19954e+12 1.39923e+12 1.38369e+12 1.55795e+12 1.86489e+12 1.31396e+12 1.22836e+12 1.39276e+12 1.22358e+12 1.13837e+12 1.10852e+12
threshold=156038.64831400005 471.20822400000009 1.0000000180025095e-35 9621.2875600000025 1.0000000180025095e-35 1.0000000180025095e-35 1.0000000180025095e-35 0.70960950000000012 1.0000000180025095e-35 1.0000000180025095e-35 1.0000000180025095e-35 5.5000000000000009 259093.58488600006 100979.60791800002
decision_type=2 2 2 2 2 2 2 2 2 2 2 2 2 2
left_child=1 5 -2 12 13 -1 9 -8 -4 10 -7 -6 -3 -5
right_child=2 3 8 4 11 6 7 -9 -10 -11 -12 -13 -14 -15
leaf_value=856.57834065440784 26.229329327634979 -401.72328595471214 -697.99190484270787 393.11447099626554 -1040.6244383433282 674.26524966634054 -706.81365791847043 599.34744818076751 -349.18899226446763 -1058.6115237819665 242.84032216186372 298.91187559168333 -2377.0337229226707 66.159682043783562
leaf_count=44259 67909 41135 132564 88668 12104 103633 17325 11734 144422 3402 89034 6825 1956 263862
internal_value=0 2580.24 -5116.7 620.664 1405.2 5595.77 4590.89 -2242.34 -6451.55 5603.63 5936.23 -6970.55 -6142.34 1854.94
internal_count=1028832 683937 344895 414550 371459 269387 225128 29059 276986 196069 192667 18929 43091 352530
shrinkage=0.08


Tree=30
num_leaves=15
num_cat=0
split_feature=4 0 2 4 14 15 20 15 11 9 9 0 6 2
split_gain=1.18522e+13 4.79037e+12 2.33309e+12 2.16415e+12 1.88009e+12 1.55641e+12 1.31805e+12 1.18818e+12 1.17111e+12 1.09844e+12 1.04321e+12 8.55513e+11 8.31498e+11 7.9072e+11
threshold=186881.94070450004 8.5000000000000018 492.63098184600011 258632.08658600005 1.0000000180025095e-35 1.0000000180025095e-35 46.500000000000007 2.5000000000000004 1.0000000180025095e-35 1.0000000180025095e-35 1.0000000180025095e-35 5.5000000000000009 1.0000000180025095e-35 45234.781909666512
decision_type=2 2 2 2 2 2 2 2 2 2 2 2 2 2
left_child=2 4 -1 6 5 -2 7 -3 9 13 12 -10 -7 -4
right_child=1 3 8 -5 -6 10 -8 -9 11 -11 -12 -13 -14 -15
leaf_value=457.7346889029418 -114.88446556577314 -219.75211961091395 354.75827421289802 -1115.8903608803514 979.60480249537125 2095.1963957078206 -700.69404083744337 -684.26830781868364 -647.50938321627871 60.597721547614242 -207.85352586037632 -0.31807712891713413 613.23949514075866 1117.8927289967478
leaf_count=249281 146052 217919 53679 27352 13373 2757 63789 42041 18284 108641 9432 45857 20007 10368
internal_value=0 -3212.23 3586.32 -5407.06 809.294 -48.671 -4685.42 -3685.93 1338.68 2693.93 6244.98 -2310.08 9909.03 5978.69
internal_count=1028832 542722 486110 351101 191621 178248 323749 259960 236829 172688 32196 64141 22764 64047
shrinkage=0.08


Tree=31
num_leaves=15
num_cat=0
split_feature=20 4 9 11 6 5 4 19 13 11 14 0 19 15
split_gain=1.01312e+13 3.3573e+12 2.52226e+12 2.89507e+12 2.3365e+12 1.83801e+12 1.75533e+12 1.48559e+12 1.35982e+12 1.30145e+12 1.23285e+12 1.16371e+12 1.03951e+12 7.75472e+11
threshold=1.5000000000000002 241398.07068150004 1.0000000180025095e-35 1.0000000180025095e-35 1.0000000180025095e-35 155621.73909750002 258893.48666000002 1.0000000180025095e-35 1.0000000180025095e-35 17.500000000000004 1.0000000180025095e-35 4.5000000000000009 2.5000000000000004 5.5000000000000009
decision_type=2 2 2 2 2 2 2 2 2 2 2 2 2 2
left_child=2 7 3 8 -5 -4 9 -2 10 13 12 -6 -1 -3
right_child=1 6 5 4 11 -7 -8 -9 -10 -11 -12 -13 -14 -15
leaf_value=617.32187540087614 203.06154502119961 -275.12462037736339 -92.808968242287364 1491.5374353840896 -522.83284891079688 327.10702131752441 -1177.5059820557249 -202.39926503034721 -895.74039099056483 -872.41550656662423 1194.0113951496014 324.1156229955476 82.683416095889612 -814.97222360929152
leaf_count=145337 94688 186779 164173 5389 33929 112376 20065 148589 3967 32054 20074 14961 27713 18738
internal_value=0 -3221.53 3056.73 5349.39 -1117.42 972.805 -5737.24 -557.328 7130.35 -4978.66 7506.82 -3295.69 6646.28 -4054.31
internal_count=1028832 500913 527919 251370 54279 276549 257636 243277 197091 237571 193124 48890 173050 205517
shrinkage=0.08


Tree=32
num_leaves=15
num_cat=0
split_feature=4 0 4 14 11 9 7 15 14 11 11 9 13 15
split_gain=8.76801e+12 3.53181e+12 1.7266e+12 1.61667e+12 1.6056e+12 1.73128e+12 1.36967e+12 1.11291e+12 1.00193e+12 9.63712e+11 9.58233e+11 1.33031e+12 9.16139e+11 8.88343e+11
threshold=182493.11732950003 7.5000000000000009 258321.51006200004 1.0000000180025095e-35 1.0000000180025095e-35 1.0000000180025095e-35 1.0000000180025095e-35 2.5000000000000004 1.0000000180025095e-35 18.500000000000004 1.0000000180025095e-35 1.0000000180025095e-35 1.0000000180025095e-35 1.0000000180025095e-35
decision_type=2 2 2 2 2 2 2 2 2 2 2 2 2 2
left_child=4 3 7 6 5 8 10 9 12 -3 11 -2 -1 -8
right_child=1 2 -4 -5 -6 -7 13 -9 -10 -11 -12 -13 -14 -15
leaf_value=498.69329974926279 282.64956970902966 -178.99230198948086 -871.69562016641612 938.88111393643635 -29.71421274317067 183.90772163692461 360.36693586224675 -624.40941373946396 1117.5354893832557 -639.15542402908886 -508.63968601164419 -235.23519062129563 -869.04092065452528 1704.9856268972535
leaf_count=138224 60970 257290 36558 12834 95276 201248 21341 54725 17010 32846 27390 66225 3207 3688
internal_value=0 -2599.33 -4361.51 893.178 3278.65 4245.5 118.423 -3668.78 6718.09 -2888.59 -992.734 162.614 5845.99 6981.19
internal_count=1028832 573867 381419 192448 454965 359689 179614 344861 158441 290136 154585 127195 141431 25029
shrinkage=0.08


Tree=33
num_leaves=15
num_cat=0
split_feature=1 20 19 1 4 8 6 11 1 9 13 8 14 13
split_gain=7.71364e+12 2.94588e+12 1.6621e+12 1.59347e+12 1.45421e+12 1.33834e+12 1.56629e+12 1.10106e+12 1.49462e+12 9.97033e+11 9.95872e+11 9.37689e+11 9.00721e+11 8.11396e+11
threshold=17646.192497500004 35.500000000000007 1.0000000180025095e-35 159151.89285200005 258321.51006200004 1.0000000180025095e-35 1.0000000180025095e-35 1.0000000180025095e-35 0.70960950000000012 1.0000000180025095e-35 1.0000000180025095e-35 1.0000000180025095e-35 1.0000000180025095e-35 1.0000000180025095e-35
decision_type=2 2 2 2 2 2 2 2 2 2 2 2 2 2
left_child=4 2 -2 10 5 6 9 12 -9 -1 -4 -5 13 -8
right_child=1 -3 3 11 -6 -7 7 8 -10 -11 -12 -13 -14 -15
leaf_value=1330.4277668111763 160.54902239727508 -583.61411190928072 14.43447607958281 -511.71927482947819 -1255.7865923720126 71.504324613104387 369.28847765799554 -623.39941159329248 351.38678489942419 497.1135211348651 -709.95158541521789 -166.87528346823197 922.62017511484896 -839.7385085999897
leaf_count=17033 122933 93846 212401 99300 3889 115328 164434 17212 24250 19954 12883 102616 19122 3631
internal_value=0 -2116.75 -1233.37 -2165.79 3541.98 3738.38 4973.37 3996.74 -665.917 11010.8 -337.375 -4205.82 5029.52 4289.6
internal_count=1028832 643979 550133 427200 384853 380964 265636 228649 41462 36987 225284 201916 187187 168065
shrinkage=0.08


Tree=34
num_leaves=15
num_cat=0
split_feature=4 0 2 4 14 15 13 11 19 13 15 6 16 9
split_gain=6.64453e+12 2.5726e+12 1.61538e+12 1.36176e+12 1.24089e+12 1.33008e+12 8.81572e+11 1.16775e+12 8.52265e+11 8.51828e+11 7.67586e+11 6.06904e+11 5.99528e+11 5.46738e+11
threshold=189753.16342850003 6.5000000000000009 492.63098184600011 258632.08658600005 1.0000000180025095e-35 1.0000000180025095e-35 1.0000000180025095e-35 5.5000000000000009 1.5000000000000002 1.0000000180025095e-35 3.5000000000000004 1.0000000180025095e-35 1.0000000180025095e-35 39.500000000000007
decision_type=2 2 2 2 2 2 2 2 2 2 2 2 2 2
left_child=2 4 -1 9 5 12 8 -8 -4 10 13 -7 -2 -3
right_child=1 3 6 -5 -6 11 7 -9 -10 -11 -12 -13 -14 -15
leaf_value=347.9342920338716 -177.4290875645697 -114.34997911088601 284.40251944120058 -849.23539067794775 931.68496204922894 1600.4041730377646 -1023.3805746332414 501.52091364792642 -25.123861306557835 -633.60164350568709 -538.91783892999649 397.32244252200485 315.74717720592088 -396.02552318100294
leaf_count=255552 97980 205639 95441 28132 10139 3055 10073 4720 141103 36830 43151 22071 18803 56143
internal_value=0 -2504.41 2578.78 -3927.8 958.364 194.758 778.699 -6710.38 1247.05 -3377.31 -2828.64 6795.02 -1225.3 -2184.49
internal_count=1028832 521943 506889 369895 152048 141909 251337 14793 236544 341763 304933 25126 116783 261782
shrinkage=0.08


Tree=35
num_leaves=15
num_cat=0
split_feature=5 19 4 18 8 19 11 13 11 9 2 9 8 10
split_gain=5.73884e+12 2.48524e+12 1.98937e+12 1.1703e+12 1.09302e+12 9.78579e+11 7.95627e+11 7.02554e+11 6.03106e+11 6.16063e+11 6.83806e+11 4.88059e+11 1.06159e+12 6.57565e+11
threshold=84871.900586500022 1.0000000180025095e-35 258893.48666000002 1.0000000180025095e-35 1.0000000180025095e-35 1.0000000180025095e-35 1.0000000180025095e-35 1.0000000180025095e-35 1.0000000180025095e-35 1.0000000180025095e-35 35384.358183875011 1.0000000180025095e-35 1.0000000180025095e-35 1.0000000180025095e-35
decision_type=2 2 2 2 2 2 2 2 2 2 2 2 2 2
left_child=1 2 6 7 -5 -2 11 -3 9 10 -7 12 13 -1
right_child=5 3 -4 4 -6 8 -8 -9 -10 -11 -12 -13 -14 -15
leaf_value=709.29583538024269 389.45767059976788 3.6170301161736331 -1580.954716266157 -526.69953986996666 -210.85400370589207 284.82880398982559 -194.89314883381454 -829.72695401036663 -101.77737834571546 77.53462609242753 1013.2632048695352 51.882702593136109 -26.86900935246538 -157.82688569118008
leaf_count=36707 159292 99336 4683 134785 146168 71744 51019 6926 53855 109332 9319 106379 32683 6604
internal_value=0 -1897.33 645.177 -3460.57 -4529.73 2939.92 1054.64 -633.739 1682.35 2518.08 4607.12 2031.2 3966.71 7213.48
internal_count=1028832 625290 238075 387215 280953 403542 233392 106262 244250 190395 81063 182373 75994 43311
shrinkage=0.08


Tree=36
num_leaves=15
num_cat=0
split_feature=5 5 19 3 9 13 0 13 8 4 6 8 11 0
split_gain=4.85736e+12 2.15332e+12 2.04403e+12 1.00877e+12 8.83211e+11 8.18416e+11 8.50675e+11 7.38021e+11 6.48356e+11 6.16139e+11 5.86103e+11 8.96056e+11 8.90603e+11 6.59373e+11
threshold=84871.900586500022 2531.4115795000007 1.0000000180025095e-35 75630.385352000027 1.0000000180025095e-35 1.0000000180025095e-35 7.5000000000000009 1.0000000180025095e-35 1.0000000180025095e-35 259093.58488600006 1.0000000180025095e-35 1.0000000180025095e-35 1.0000000180025095e-35 2.5000000000000004
decision_type=2 2 2 2 2 2 2 2 2 2 2 2 2 2
left_child=1 9 7 8 5 10 -7 -3 -4 -1 11 -2 -12 -14
right_child=4 2 3 -5 -6 6 -8 -9 -10 -11 12 -13 13 -15
leaf_value=-435.87335723219064 1158.9391181363021 137.75790152505445 -456.44913320316914 -11.984268853198367 108.37246340190588 -895.64501610696345 885.3284288986024 -638.27286681790929 -177.76926564335415 -1093.561615851839 420.25528078954454 185.69877103710792 -426.51690835588482 334.42100341003777
leaf_count=73010 14212 208972 101421 110407 220178 6323 2356 8149 112914 10417 120641 10548 15624 13660
internal_value=0 -1745.55 -1017.39 -2605.5 2704.73 4325.86 -5152.28 1357.9 -3870.47 -6474.93 4796.77 9304.12 4052.39 -894.562
internal_count=1028832 625290 541863 324742 403542 183364 8679 217121 214335 83427 174685 24760 149925 29284
shrinkage=0.08


Tree=37
num_leaves=15
num_cat=0
split_feature=1 20 15 8 7 13 9 2 14 2 11 2 11 9
split_gain=4.26265e+12 1.85491e+12 1.16459e+12 1.15067e+12 1.16063e+12 1.03793e+12 1.35339e+12 1.03498e+12 1.17561e+12 9.62434e+11 1.24917e+12 9.55522e+11 9.08668e+11 7.01577e+11
threshold=17646.192497500004 46.500000000000007 4.5000000000000009 1.0000000180025095e-35 1.0000000180025095e-35 1.0000000180025095e-35 1.5000000000000002 7.6983716185000013 1.0000000180025095e-35 45234.781909666512 1.0000000180025095e-35 146.55673824100003 1.0000000180025095e-35 1.0000000180025095e-35
decision_type=2 2 2 2 2 2 2 2 2 2 2 2 2 2
left_child=3 2 5 4 7 6 9 8 12 -2 -11 -9 -1 -6
right_child=1 -3 -4 -5 13 -7 -8 11 -10 10 -12 -13 -14 -15
leaf_value=113.39478873383327 63.369837137028433 -496.73992157850518 -444.3428116881621 1.1518639175831462 1092.4524088328858 -447.75223081599211 -102.18659511895821 701.01303975170333 885.99805827864918 748.84844586256713 -281.06075070374266 197.29107144577739 -487.86702526438518 396.27975721604128
leaf_count=103995 113872 76114 50133 116853 17132 37180 324350 45542 10934 32519 9811 51193 19030 20174
internal_value=0 -1573.54 -952.196 2633.03 3774.8 -506.567 -112.731 2937.95 1138.02 2305.54 6376.78 5430.49 254.865 8949.78
internal_count=1028832 643979 567865 384853 268000 517732 480552 230694 133959 156202 42330 96735 123025 37306
shrinkage=0.08


Tree=38
num_leaves=15
num_cat=0
split_feature=4 2 20 11 9 2 14 0 6 14 9 6 8 2
split_gain=3.84745e+12 1.7929e+12 1.43384e+12 7.59506e+11 7.29008e+11 8.72919e+11 7.06124e+11 6.52828e+11 7.94231e+11 6.47785e+11 6.21297e+11 6.11121e+11 7.78673e+11 7.3605e+11
threshold=241398.07068150004 146.55673824100003 5.5000000000000009 1.0000000180025095e-35 1.0000000180025095e-35 45234.781909666512 2.5000000000000004 4.5000000000000009 1.0000000180025095e-35 1.0000000180025095e-35 1.0000000180025095e-35 1.0000000180025095e-35 1.0000000180025095e-35 25.728299060000008
decision_type=2 2 2 2 2 2 2 2 2 2 2 2 2 2
left_child=1 11 10 4 5 6 -3 8 -5 -7 -2 12 -1 -13
right_child=2 3 -4 7 -6 9 -8 -9 -10 -11 -12 13 -14 -15
leaf_value=796.66309134765766 218.42138471512692 78.37275107666062 -380.46767765702907 1004.9303776934663 -16.844126966523081 566.31289185348442 1033.0922992372759 -73.985167979132783 -670.36198946674438 2142.9397803785441 -173.32387262739391 130.20928482518067 105.35982781927829 479.24995869466773
leaf_count=27574 43919 90620 185071 1973 218967 18308 5245 113379 22073 1835 63189 169845 16770 50064
internal_value=0 1217.89 -3070.59 51.0747 863.227 2890 1632.6 -1928.56 -6661.28 8874.27 -158.638 3303.78 6690.33 2620.89
internal_count=1028832 736653 292179 472400 334975 116008 95865 137425 24046 20143 107108 264253 44344 219909
shrinkage=0.08


Tree=39
num_leaves=15
num_cat=0
split_feature=5 13 4 19 3 8 19 20 14 15 9 16 14 18
split_gain=3.34139e+12 1.59599e+12 1.33048e+12 1.19466e+12 8.18602e+11 7.49101e+11 7.35283e+11 5.14695e+11 6.66288e+11 4.60276e+11 5.02715e+11 3.99223e+11 3.95984e+11 3.90426e+11
threshold=84871.900586500022 1.0000000180025095e-35 258893.48666000002 1.0000000180025095e-35 84040.08828250003 1.0000000180025095e-35 1.0000000180025095e-35 27.500000000000004 1.0000000180025095e-35 1.0000000180025095e-35 1.0000000180025095e-35 1.5000000000000002 1.0000000180025095e-35 1.5000000000000002
decision_type=2 2 2 2 2 2 2 2 2 2 2 2 2 2
left_child=1 2 3 7 5 12 -2 8 9 -1 -11 -9 -5 -8
right_child=6 -3 -4 4 -6 -7 13 11 -10 10 -12 -13 -14 -15
leaf_value=29.013556230792162 313.18325856715467 -524.30413899454584 -796.67083098033243 -454.07285070579587 38.201473181844889 -102.96336792990539 165.20305036032792 -83.468879825374785 602.77869058412648 612.38605145993301 -113.88787317081244 -884.23299348234627 7.7864859963663413 -47.986198113028586
leaf_count=158759 159292 55757 15929 90805 100458 124183 160676 15100 17154 19102 8961 5413 13669 83574
internal_value=0 -1447.76 -947.876 -688.614 -1901.85 -2947.21 2243.3 1090.07 1570.25 1022.59 4755.93 -3684.7 -4920.56 1153.21
internal_count=1028832 625290 569533 553604 329115 228657 403542 224489 203976 186822 28063 20513 104474 244250
shrinkage=0.08


Tree=40
num_leaves=15
num_cat=0
split_feature=5 1 20 19 8 6 2 11 13 9 2 2 0 9
split_gain=2.88826e+12 1.42408e+12 8.55397e+11 7.05624e+11 6.59613e+11 8.61873e+11 9.8579e+11 9.99748e+11 6.72814e+11 7.09646e+11 6.52298e+11 6.45229e+11 6.27002e+11 5.68191e+11
threshold=14855.632078000004 22010.552399500004 6.5000000000000009 1.0000000180025095e-35 1.0000000180025095e-35 1.0000000180025095e-35 7.6983716185000013 1.0000000180025095e-35 1.0000000180025095e-35 1.0000000180025095e-35 97143.891212500021 146.55673824100003 4.5000000000000009 1.0000000180025095e-35
decision_type=2 2 2 2 2 2 2 2 2 2 2 2 2 2
left_child=2 4 -1 -3 5 13 7 8 9 -7 -5 -8 -13 -2
right_child=1 3 -4 10 -6 6 11 -9 -10 -11 -12 12 -14 -15
leaf_value=-47.442914371793904 988.59903695329172 177.16807975953853 -344.77220454583608 -92.250093150946327 29.215270189562666 376.73152158239537 640.85543336018009 -492.05828234838765 -1011.0533636631211 -47.136652582204924 799.80149816197684 -8.5940366245351427 582.32161045946577 336.73836035388814
leaf_count=100955 15942 88623 160181 318772 106608 57127 41342 17924 3079 45344 5334 30789 18336 18476
internal_value=0 977.202 -2872.81 -285.885 2445.83 3338.94 2591.75 754.358 1926.95 2364.59 -969.614 5099.52 2649.58 7983.4
internal_count=1028832 767696 261136 412729 354967 248359 213941 123474 105550 102471 324106 90467 49125 34418
shrinkage=0.08


Tree=41
num_leaves=15
num_cat=0
split_feature=4 20 13 11 9 9 14 7 11 14 15 0 7 8
split_gain=2.53774e+12 1.15963e+12 8.00076e+11 1.17914e+12 7.93202e+11 7.47186e+11 7.942e+11 6.55994e+11 8.90195e+11 6.54268e+11 6.37596e+11 5.64447e+11 5.61731e+11 6.42577e+11
threshold=189753.16342850003 8.5000000000000018 1.0000000180025095e-35 5.5000000000000009 1.0000000180025095e-35 1.0000000180025095e-35 1.0000000180025095e-35 1.0000000180025095e-35 1.0000000180025095e-35 1.0000000180025095e-35 1.0000000180025095e-35 5.5000000000000009 1.0000000180025095e-35 1.0000000180025095e-35
decision_type=2 2 2 2 2 2 2 2 2 2 2 2 2 2
left_child=2 4 5 -4 9 6 7 8 -1 -2 -9 -10 13 -6
right_child=1 -3 3 -5 12 -7 -8 10 11 -11 -12 -13 -14 -15
leaf_value=243.67249147534494 79.376521628523875 -259.25371103242765 -742.0182464531415 559.33625478958436 -298.53411607586247 61.611015024336659 711.67550524688113 365.68739852695751 -390.19829164042932 709.76824383988799 1296.6341240273175 399.27172284380742 216.60347364478335 56.637130492329568
leaf_count=126723 105917 227924 14902 6357 102518 274811 22443 21702 26521 11701 6013 7417 26081 47802
internal_value=0 -1547.73 1593.7 -4410.99 -235.367 1856.56 3272.76 2602.82 1827.75 1776.12 7095.8 -2720.79 -1576.56 -2319.86
internal_count=1028832 521943 506889 21259 294019 485630 210819 188376 160661 117618 27715 33938 176401 150320
shrinkage=0.08


Tree=42
num_leaves=15
num_cat=0
split_feature=5 2 15 11 4 2 9 0 7 14 5 16 2 8
split_gain=2.20981e+12 1.41747e+12 7.04732e+11 7.18817e+11 6.22205e+11 6.10523e+11 9.74455e+11 5.471e+11 6.07682e+11 4.81019e+11 4.60834e+11 4.20017e+11 4.26259e+11 9.55311e+11
threshold=8085.1743475000012 182.46760301300006 6.5000000000000009 1.0000000180025095e-35 259093.58488600006 55837.594827416506 1.5000000000000002 4.5000000000000009 1.0000000180025095e-35 1.0000000180025095e-35 172704.03231550005 1.5000000000000002 7.6983716185000013 1.0000000180025095e-35
decision_type=2 2 2 2 2 2 2 2 2 2 2 2 2 2
left_child=4 11 3 5 -1 -3 -7 8 9 -5 -9 12 -2 -14
right_child=1 2 -4 7 -6 6 -8 10 -10 -11 -12 -13 13 -15
leaf_value=-219.07831656886603 141.93774363765567 29.667464130640088 -383.63012295805237 -675.35881158856148 -856.29120008302561 699.55315475339535 -159.97844175955868 -111.80905898373884 828.74876239362447 940.55607970013887 508.8294733227965 -343.78695746065773 568.31573287628589 67.715328670152843
leaf_count=167530 179248 333989 32178 22556 10417 22459 13525 127495 2100 1244 8146 8866 55614 43465
internal_value=0 670.216 -251.055 24.0592 -3204.76 792.496 4706.1 -1735.87 -5947.38 -7386.21 -931.703 2478.46 2694.3 4358.84
internal_count=1028832 850885 563692 531514 177947 369973 35984 161541 25900 23800 135641 287193 278327 99079
shrinkage=0.08


Tree=43
num_leaves=15
num_cat=0
split_feature=4 13 9 14 15 0 4 0 15 6 5 16 2 14
split_gain=1.96576e+12 1.32906e+12 1.11144e+12 1.13877e+12 8.72472e+11 7.85207e+11 6.52934e+11 6.00255e+11 6.39302e+11 8.44873e+11 4.67572e+11 4.49709e+11 3.69096e+11 3.64341e+11
threshold=100979.60791800002 1.0000000180025095e-35 1.0000000180025095e-35 1.0000000180025095e-35 2.5000000000000004 8.5000000000000018 259093.58488600006 8.5000000000000018 1.0000000180025095e-35 1.0000000180025095e-35 33539.218038000014 1.0000000180025095e-35 38472.558607250008 2.5000000000000004
decision_type=2 2 2 2 2 2 2 2 2 2 2 2 2 2
left_child=-1 2 3 7 6 12 -4 8 11 -10 -11 -2 13 -5
right_child=1 -3 4 5 -6 -7 -8 -9 9 10 -12 -13 -14 -15
leaf_value=220.0251241302571 -60.834158451093018 -407.04075619113217 -47.976200775151611 511.72521979611082 -407.93089977398057 1.8486626638305623 -887.7037833278381 -169.87769037723049 1299.276373251691 736.46767251856613 97.589839685866124 283.19669030999512 1658.283239183992 1482.2746525080843
leaf_count=207470 87396 63533 451299 10575 50975 8943 6005 57229 5689 9752 29538 33692 3504 3232
internal_value=0 -694.709 -326.394 1401.95 -1174.96 7631.87 -737.537 669.464 1631.95 4851.22 3202.04 436.129 11562.6 9236.44
internal_count=1028832 821362 757829 249550 508279 26254 457304 223296 166067 44979 39290 121088 17311 13807
shrinkage=0.08


Tree=44
num_leaves=15
num_cat=0
split_feature=5 19 18 13 10 4 15 9 11 6 8 13 0 19
split_gain=1.72328e+12 1.17357e+12 9.66237e+11 6.77559e+11 4.50188e+11 4.18225e+11 4.13517e+11 4.00349e+11 5.17757e+11 9.39012e+11 8.20213e+11 5.27222e+11 4.6121e+11 3.80086e+11
threshold=5952.9833530000014 1.0000000180025095e-35 1.5000000000000002 1.0000000180025095e-35 1.0000000180025095e-35 258893.48666000002 4.5000000000000009 1.0000000180025095e-35 1.0000000180025095e-35 1.0000000180025095e-35 1.0000000180025095e-35 1.0000000180025095e-35 4.5000000000000009 1.5000000000000002
decision_type=2 2 2 2 2 2 2 2 2 2 2 2 2 2
left_child=5 4 3 -3 7 -1 -4 8 10 -10 11 -2 -11 -7
right_child=1 2 6 -5 -6 13 -8 -9 9 12 -12 -13 -14 -15
leaf_value=-199.19009433028461 586.24099925173459 97.495079241345451 -107.94241939965144 -516.03115032771564 -200.18692238767665 -1149.5647563891018 -417.33898386499749 98.948538593985347 1236.1308219724217 -334.42606587911484 107.41983253846092 -594.20443532736169 354.97328996593467 -379.2833244135478
leaf_count=125242 63173 261093 221034 12052 21569 5602 31599 186857 3538 22049 48571 2518 8646 15289
internal_value=0 526.591 -423.429 880.305 1926.06 -3180.81 -1833.02 2210.88 3436.53 25.1109 4458.6 6762.42 -1753 -7322.96
internal_count=1028832 882699 525778 273145 356921 146133 252633 335352 148495 34233 114262 65691 30695 20891
shrinkage=0.08


Tree=45
num_leaves=15
num_cat=0
split_feature=5 13 4 3 10 9 18 8 20 14 18 8 13 0
split_gain=1.55589e+12 8.82996e+11 7.09066e+11 6.32609e+11 4.75705e+11 4.6031e+11 4.17263e+11 5.49101e+11 3.77369e+11 4.96932e+11 3.773e+11 3.71353e+11 3.53631e+11 6.1436e+11
threshold=84871.900586500022 1.0000000180025095e-35 258632.08658600005 52647.731021500011 1.5000000000000002 1.0000000180025095e-35 1.5000000000000002 1.5000000000000002 27.500000000000004 1.0000000180025095e-35 8.5000000000000018 1.0000000180025095e-35 1.0000000180025095e-35 7.5000000000000009
decision_type=2 2 2 2 2 2 2 2 2 2 2 2 2 2
left_child=1 2 3 6 8 12 -1 -8 9 10 -5 -11 -2 -14
right_child=5 -3 -4 4 -6 -7 7 -9 -10 11 -12 -13 13 -15
leaf_value=168.55823881147487 240.85308107383906 -382.86871087718998 -475.06014865009979 35.288266697150895 -408.60642880649272 44.49012712368274 -312.88889885123353 -42.523209645665474 -181.69301700816598 629.53695487308721 483.86620150090624 -27.928416695631373 -693.19571543290385 820.320675184577
leaf_count=25385 174685 55757 23979 238522 14484 220178 95322 96997 36434 17823 12636 7951 6323 2356
internal_value=0 -987.917 -616.1 -382.173 495.321 1530.78 -1703.63 -2206.61 754.291 1152.33 723.208 5333.95 2701.12 -3529.21
internal_count=1028832 625290 569533 545554 327850 403542 217704 192319 313366 276932 251158 25774 183364 8679
shrinkage=0.08


Tree=46
num_leaves=15
num_cat=0
split_feature=5 5 15 11 9 14 2 2 1 2 6 8 14 0
split_gain=1.34752e+12 8.57145e+11 7.1403e+11 6.08723e+11 4.66581e+11 9.04847e+11 5.61421e+11 4.38875e+11 3.71497e+11 3.56619e+11 5.99587e+11 4.91957e+11 4.43496e+11 3.0748e+11
threshold=155621.73909750002 2531.4115795000007 4.5000000000000009 1.0000000180025095e-35 1.0000000180025095e-35 1.0000000180025095e-35 38472.558607250008 49393.707666666509 43538.404402500011 18590.777640138505 1.0000000180025095e-35 1.0000000180025095e-35 1.0000000180025095e-35 28.500000000000004
decision_type=2 2 2 2 2 2 2 2 2 2 2 2 2 2
left_child=1 -1 3 4 5 6 -3 -7 13 -6 -11 12 -12 -4
right_child=-2 2 8 -5 9 7 -8 -9 -10 10 11 -13 -14 -15
leaf_value=-290.306724346328 176.75771050026179 27.679173357556525 840.24759618959342 -118.31461922737212 38.193314588088867 572.02238324567907 433.91949034713224 1851.6232959910383 -364.9919570572232 496.13424834530139 -420.04532641580738 209.5957389531668 557.86208981561253 -883.45525068634151
leaf_count=83427 217640 127305 2963 191500 244149 14207 26264 1951 48286 7777 47253 12090 3167 853
internal_value=0 -592.794 -244.758 30.2999 627.244 1963.4 1214.45 9081.6 -3811.74 -93.9915 -2078.83 -3109.03 -4482.76 5686.8
internal_count=1028832 811192 727765 675663 484163 169727 153569 16158 52102 314436 70287 62510 50420 3816
shrinkage=0.08


Tree=47
num_leaves=15
num_cat=0
split_feature=4 13 9 14 2 15 10 6 8 4 16 0 2 8
split_gain=1.14623e+12 8.0304e+11 6.75867e+11 7.87563e+11 6.0354e+11 5.71681e+11 4.4405e+11 4.32241e+11 6.9351e+11 4.16016e+11 3.84754e+11 3.19598e+11 3.1849e+11 3.10835e+11
threshold=100979.60791800002 1.0000000180025095e-35 1.0000000180025095e-35 1.0000000180025095e-35 19699.318990887503 2.5000000000000004 1.0000000180025095e-35 1.0000000180025095e-35 1.5000000000000002 259093.58488600006 2.5000000000000004 5.5000000000000009 26918.141294777506 1.0000000180025095e-35
decision_type=2 2 2 2 2 2 2 2 2 2 2 2 2 2
left_child=-1 2 3 6 13 9 7 8 10 -4 12 -3 -2 -5
right_child=1 11 5 4 -6 -7 -8 -9 -10 -11 -12 -13 -14 -15
leaf_value=168.012883045791 630.78233079033294 -752.73636784098653 -35.344418673596813 474.99214144680889 1168.7812059387124 -326.59311311135849 -233.39502998493725 37.177517061895337 -139.89242574432046 -705.62817694079888 -748.63420569965444 -241.98134266706978 1573.2839818130576 -240.60028998248941
leaf_count=207470 13032 9162 451299 14394 6539 50975 32580 163625 10171 6005 1103 54371 2785 5321
internal_value=0 -530.485 -244.189 1103.59 6284.5 -905.907 494.44 1077.29 4777.12 -551.827 8699.92 -3945.46 9959.18 3523.21
internal_count=1028832 821362 757829 249550 26254 508279 223296 190716 27091 457304 16920 63533 15817 19715
shrinkage=0.08


Tree=48
num_leaves=15
num_cat=0
split_feature=4 19 18 13 20 2 4 10 8 6 0 14 13 1
split_gain=1.03905e+12 6.405e+11 4.69351e+11 3.86316e+11 3.7308e+11 3.5072e+11 3.43442e+11 3.37455e+11 2.90939e+11 5.04307e+11 5.23509e+11 6.18389e+11 4.81285e+11 3.55463e+11
threshold=247104.76155400006 1.0000000180025095e-35 1.5000000000000002 1.0000000180025095e-35 80.500000000000014 139165.38505300003 259093.58488600006 1.0000000180025095e-35 1.0000000180025095e-35 1.0000000180025095e-35 7.5000000000000009 1.0000000180025095e-35 1.0000000180025095e-35 90246.335303500018
decision_type=2 2 2 2 2 2 2 2 2 2 2 2 2 2
left_child=1 7 3 5 6 -3 -2 8 9 -1 11 12 -11 -10
right_child=4 2 -4 -5 -6 -7 -8 -9 13 10 -12 -13 -14 -15
leaf_value=529.04358736466736 -87.616136057456359 70.114262515160377 -103.56435592832182 -406.08354537445723 -391.90346122038619 1309.1198284858169 -688.43735237759392 -195.79026029301897 -34.799720351145609 70.463481333207909 452.0639628090733 601.22143393632962 -686.10422996416196 320.61139012742103
leaf_count=26763 188688 243225 215641 11047 34644 1471 6292 19273 83272 124695 31430 13787 5624 22980
internal_value=0 538.672 -207.884 708.389 -1874.85 969.532 -1337.56 1612.16 1865.73 2569.46 1952.96 1146.45 472.666 525.85
internal_count=1028832 799208 471384 255743 229624 244696 194980 327824 308551 202299 175536 144106 130319 106252
shrinkage=0.08


Tree=49
num_leaves=15
num_cat=0
split_feature=5 13 4 3 10 13 13 9 8 14 11 18 9 8
split_gain=9.19506e+11 5.34742e+11 4.41441e+11 4.31736e+11 3.76159e+11 3.73396e+11 4.312e+11 4.19308e+11 3.32342e+11 3.35522e+11 3.10809e+11 3.82389e+11 3.68745e+11 5.36945e+11
threshold=84871.900586500022 1.0000000180025095e-35 258893.48666000002 52647.731021500011 1.5000000000000002 3.5000000000000004 1.0000000180025095e-35 1.0000000180025095e-35 1.0000000180025095e-35 1.0000000180025095e-35 1.0000000180025095e-35 7.5000000000000009 1.0000000180025095e-35 1.0000000180025095e-35
decision_type=2 2 2 2 2 2 2 2 2 2 2 2 2 2
left_child=1 2 3 8 10 6 7 -2 9 -1 11 12 13 -5
right_child=5 -3 -4 4 -6 -7 -8 -9 -10 -11 -12 -13 -14 -15
leaf_value=-268.70884660144844 194.32693164743134 -297.20298291744132 -452.82364508421801 390.58866124828086 -363.44206418105853 1055.1711258341338 -392.98510663177007 27.409437128835343 -18.037910044309832 154.23423883351802 -95.417429109684548 496.10466533166584 -9.6892400073153091 -8.5652331263694528
leaf_count=92703 174685 55757 15929 45014 14701 2571 11585 214701 115566 13790 72142 14223 144053 41412
internal_value=0 -759.467 -470.118 -320.779 401.945 1176.8 1099.77 1278.64 -1399.84 -2674.26 631.383 1169.16 858.619 2491.62
internal_count=1028832 625290 569533 553604 331545 403542 400971 389386 222059 106493 316844 244702 230479 86426
shrinkage=0.08


Tree=50
num_leaves=15
num_cat=0
split_feature=11 9 0 15 3 2 6 8 14 20 14 0 6 14
split_gain=8.11474e+11 7.27769e+11 8.41778e+11 6.4297e+11 3.91506e+11 3.84437e+11 6.24416e+11 4.2154e+11 3.84146e+11 3.83947e+11 3.63025e+11 3.20585e+11 1.11668e+12 4.39378e+11
threshold=1.0000000180025095e-35 1.0000000180025095e-35 3.5000000000000004 2.5000000000000004 10106.213234000003 18590.777640138505 1.0000000180025095e-35 1.0000000180025095e-35 1.0000000180025095e-35 62.500000000000007 2.5000000000000004 5.5000000000000009 1.0000000180025095e-35 1.0000000180025095e-35
decision_type=2 2 2 2 2 2 2 2 2 2 2 2 2 2
left_child=1 2 4 5 -1 -3 -7 8 -8 11 -4 12 -2 -14
right_child=9 3 10 -5 -6 6 7 -9 -10 -11 -12 -13 13 -15
leaf_value=689.88073011055303 723.02805015529054 46.621472334748368 -60.70154978516041 -330.30497950647799 224.90142471281806 491.45013688354419 -383.57093536147238 170.86897831755059 486.39657108771337 -349.18957560512717 530.50881502278105 -23.6518247336064 -397.89688894576483 631.38662915520342
leaf_count=12528 6992 348953 105296 38549 154642 8613 51743 13425 3466 38684 7095 181489 54567 2790
internal_value=0 549.093 1824.04 -217.825 3246.85 135.917 -1882.68 -2889.85 -4111.93 -1436.43 -292.247 -975.622 -2893.41 -4347.87
internal_count=1028832 744310 279561 464749 167170 426200 77247 68634 55209 284522 112391 245838 64349 57357
shrinkage=0.08


Tree=51
num_leaves=15
num_cat=0
split_feature=5 19 18 3 3 16 3 16 13 11 3 15 2 8
split_gain=7.36062e+11 5.88041e+11 5.00095e+11 3.35798e+11 4.93319e+11 4.35406e+11 3.32418e+11 3.06312e+11 2.96925e+11 2.88143e+11 2.82966e+11 2.57514e+11 2.50743e+11 2.59321e+11
threshold=5302.6735640000015 1.0000000180025095e-35 1.5000000000000002 86211.26602900002 61087.171861500006 1.5000000000000002 21234.466113500006 2.5000000000000004 1.0000000180025095e-35 5.5000000000000009 73632.734920500021 1.0000000180025095e-35 1244.9416262665002 1.0000000180025095e-35
decision_type=2 2 2 2 2 2 2 2 2 2 2 2 2 2
left_child=12 3 6 4 -2 -5 -3 8 -8 -10 -4 -6 -1 -14
right_child=1 2 10 5 11 -7 7 -9 9 -11 -12 -13 13 -15
leaf_value=-327.20307315059313 93.332067876118231 379.63753146707234 -131.34843336015095 41.014679573843168 304.88549906434753 -585.58610311364157 63.86501164113804 -343.34076773126685 -627.66480649637026 341.07438839147102 183.03311858828033 847.53058961496356 -232.4549856341431 38.824260742660066
leaf_count=45334 162933 18069 237786 129442 54233 7509 233288 13705 7578 2653 19853 6241 45025 45183
internal_value=0 329.477 -337.696 1316.16 2071.96 83.2283 599.432 308.189 567.069 -4705.76 -1339.04 4511.09 -2171.42 -1207.22
internal_count=1028832 893290 532932 360358 223407 136951 275293 257224 243519 10231 257639 60474 135542 90208
shrinkage=0.08


Tree=52
num_leaves=15
num_cat=0
split_feature=11 9 0 14 15 2 10 2 6 8 14 3 8 4
split_gain=6.39938e+11 5.91068e+11 6.86322e+11 6.65679e+11 5.29526e+11 3.79243e+11 4.08278e+11 3.48296e+11 5.34746e+11 3.85669e+11 3.57216e+11 3.14909e+11 3.19897e+11 3.94721e+11
threshold=1.0000000180025095e-35 1.0000000180025095e-35 5.5000000000000009 2.5000000000000004 1.5000000000000002 139165.38505300003 1.0000000180025095e-35 20943.837921750004 1.0000000180025095e-35 1.0000000180025095e-35 1.0000000180025095e-35 13807.364271000002 1.0000000180025095e-35 229036.33093000005
decision_type=2 2 2 2 2 2 2 2 2 2 2 2 2 2
left_child=1 2 3 5 7 6 11 -3 -9 10 -10 -1 13 -13
right_child=-2 4 -4 -5 -6 -7 -8 8 9 -11 -12 12 -14 -15
leaf_value=536.27757766235891 -102.04832023653158 45.26160385206844 -66.3570186823261 1294.8527196689402 -263.93142863230258 982.3486269695768 -140.26180462360463 488.44500728560126 -384.89568094604954 194.61932363889656 534.77817347036932 197.18155272132623 29.443780259675094 634.4055451986959
leaf_count=17832 284522 348461 80399 3559 49386 3799 23100 7377 45676 10976 2873 78862 56135 15875
internal_value=0 487.616 1636.6 2632.11 -203.532 2385.5 2189.54 164.532 -1925.33 -2920.61 -4130.9 2729.41 2259.71 3380.59
internal_count=1028832 744310 279561 199162 464749 195603 191804 415363 66902 59525 48549 168704 150872 94737
shrinkage=0.08


Tree=53
num_leaves=15
num_cat=0
split_feature=5 10 9 14 2 6 15 11 11 15 2 6 8 8
split_gain=5.98237e+11 4.52443e+11 5.06701e+11 4.50501e+11 5.99101e+11 5.36049e+11 6.91138e+11 4.87815e+11 9.32982e+11 3.72433e+11 3.59497e+11 4.72309e+11 4.54483e+11 3.92383e+11
threshold=5302.6735640000015 1.5000000000000002 1.0000000180025095e-35 1.0000000180025095e-35 19699.318990887503 1.0000000180025095e-35 1.0000000180025095e-35 5.5000000000000009 1.0000000180025095e-35 2.5000000000000004 16652.919709071004 1.0000000180025095e-35 1.0000000180025095e-35 1.0000000180025095e-35
decision_type=2 2 2 2 2 2 2 2 2 2 2 2 2 2
left_child=-1 2 3 5 -5 6 -2 8 -7 10 13 -12 -13 -4
right_child=1 -3 9 4 -6 7 -8 -9 -10 -11 11 12 -14 -15
leaf_value=-156.60790274634635 175.07587634311221 -251.59186103415297 113.13780288295166 229.49533484911493 1084.9273339156414 98.714293881021064 978.51225675704006 566.67191266513873 -284.41597068905509 -239.78680181187349 365.84401269814856 -304.03869884005331 183.701548016798 -44.661796316623629
leaf_count=135542 30358 36625 215202 28943 6398 184242 8850 10688 52204 42365 10427 61961 15233 189794
internal_value=0 297.033 444.186 1435.99 4804.49 1020.24 4455.34 475.261 176.556 -152.182 92.5004 -1744.1 -2597.39 489.849
internal_count=1028832 893290 856665 321683 35341 286342 39208 247134 236446 534982 492617 87621 77194 404996
shrinkage=0.08


Tree=54
num_leaves=15
num_cat=0
split_feature=4 20 15 4 10 9 1 9 14 2 15 3 11 2
split_gain=5.33912e+11 4.02026e+11 3.33815e+11 3.39792e+11 3.2139e+11 2.68603e+11 2.61242e+11 2.56267e+11 4.75611e+11 4.6359e+11 3.19325e+11 4.05041e+11 3.46045e+11 3.17581e+11
threshold=100979.60791800002 52.500000000000007 5.5000000000000009 259093.58488600006 1.5000000000000002 13.500000000000002 43538.404402500011 1.0000000180025095e-35 1.0000000180025095e-35 19699.318990887503 1.5000000000000002 150575.82927200003 5.5000000000000009 38472.558607250008
decision_type=2 2 2 2 2 2 2 2 2 2 2 2 2 2
left_child=5 2 3 4 7 -1 -4 8 10 -10 12 13 -2 -12
right_child=1 -3 6 -5 -6 -7 -8 -9 9 -11 11 -13 -14 -15
leaf_value=87.392643132268091 -17.229680522315121 -209.20656048224737 516.99787388429627 -662.810204061788 -230.61030420934375 418.45289677243608 -275.31272686745075 -17.002074491888401 215.29949411426446 999.1363319475837 -183.12355179213631 885.7071352463031 459.04211625729107 513.46241039496704
leaf_count=190377 168752 72234 2846 4889 34781 17093 41504 437199 19278 6443 9451 6099 10363 7523
internal_value=0 -362.054 -144.807 22.6466 80.6797 1433.35 -2805.86 235.642 1095.37 5145.59 580.123 4081.61 129.073 1570.11
internal_count=1028832 821362 749128 704778 699889 207470 44350 665108 227909 25721 202188 23073 179115 16974
shrinkage=0.08


Tree=55
num_leaves=15
num_cat=0
split_feature=13 0 9 16 10 14 6 8 11 0 2 1 12 15
split_gain=5.01937e+11 4.61865e+11 4.61493e+11 4.68213e+11 4.66829e+11 4.04976e+11 4.81935e+11 8.83049e+11 4.04568e+11 4.85522e+11 3.45139e+11 3.39946e+11 3.06317e+11 3.00772e+11
threshold=1.0000000180025095e-35 5.5000000000000009 1.0000000180025095e-35 3.5000000000000004 1.0000000180025095e-35 1.0000000180025095e-35 1.0000000180025095e-35 1.0000000180025095e-35 1.0000000180025095e-35 4.5000000000000009 22227.393794173506 27104.877267000007 1.0000000180025095e-35 1.5000000000000002
decision_type=2 2 2 2 2 2 2 2 2 2 2 2 2 2
left_child=2 -2 3 4 5 6 7 12 -8 -10 -7 -3 -1 -4
right_child=1 11 13 -5 -6 10 8 -9 9 -11 -12 -13 -14 -15
leaf_value=886.53376802050411 -644.27905891845819 668.97068174242258 -6.6920567483226092 -323.66839663613518 -144.16012082963502 287.33194158149996 125.3245373929786 -19.267621251302764 -303.17133144696396 235.14482816228917 956.60955523878658 -159.03144480482047 -106.89898202240651 -184.52543421147021
leaf_count=16358 12657 3372 545004 16739 40524 28142 167517 18059 34193 15622 5979 53884 2261 68521
internal_value=0 -2586.81 188.599 1113.19 1375.95 1822.91 1388.4 4741.35 822.537 -1679.44 5057.61 -1378.34 9573.7 -331.915
internal_count=1028832 69913 958919 345394 328655 288131 254010 36678 217332 49815 34121 57256 18619 613525
shrinkage=0.08


Tree=56
num_leaves=15
num_cat=0
split_feature=4 11 13 0 20 20 20 19 11 6 2 4 20 15
split_gain=4.37053e+11 3.98625e+11 4.02446e+11 3.39432e+11 3.08309e+11 3.04282e+11 2.92848e+11 3.46407e+11 2.94506e+11 2.69616e+11 2.59063e+11 2.55165e+11 3.59131e+11 3.56312e+11
threshold=189753.16342850003 24.500000000000004 1.0000000180025095e-35 4.5000000000000009 3.5000000000000004 46.500000000000007 1.0000000180025095e-35 1.0000000180025095e-35 1.0000000180025095e-35 1.0000000180025095e-35 72422.118375000005 221201.60784850005 1.5000000000000002 1.0000000180025095e-35
decision_type=2 2 2 2 2 2 2 2 2 2 2 2 2 2
left_child=1 2 4 -4 6 11 10 8 -8 -10 -1 -2 13 -13
right_child=5 -3 3 -5 -6 -7 7 -9 9 -11 -12 12 -14 -15
leaf_value=57.791884903725048 -156.77353264454382 695.02162467199832 -729.05245193525354 -34.86718841238779 277.48463484315403 -198.26518157272261 174.88523430947652 -307.0655117518599 1186.9009407274807 -617.46756107809779 527.92439815573061 85.627594306056679 -35.715224367942952 575.15990946884972
leaf_count=371550 78602 6113 7646 10984 38126 76957 27293 31476 587 5458 7656 56503 298438 11443
internal_value=0 661.378 563.399 -3997.13 739.617 -642.302 505.295 -1459.07 787.283 -5528.18 841.046 -324.778 25.9629 2100.89
internal_count=1028832 506889 500776 18630 482146 521943 444020 64814 33338 6045 379206 444986 366384 67946
shrinkage=0.08


Tree=57
num_leaves=15
num_cat=0
split_feature=11 16 9 2 15 10 8 1 13 14 0 1 14 3
split_gain=3.9975e+11 3.42584e+11 3.29869e+11 3.89333e+11 3.1581e+11 3.05506e+11 3.8545e+11 3.68822e+11 3.08101e+11 2.95136e+11 2.95082e+11 2.8352e+11 2.77466e+11 2.53203e+11
threshold=1.0000000180025095e-35 8.5000000000000018 1.0000000180025095e-35 45234.781909666512 2.5000000000000004 1.0000000180025095e-35 1.0000000180025095e-35 90246.335303500018 6.5000000000000009 2.5000000000000004 10.500000000000002 222049.29056000002 1.5000000000000002 189646.32134900003
decision_type=2 2 2 2 2 2 2 2 2 2 2 2 2 2
left_child=1 2 3 5 10 6 7 8 9 -1 -4 -12 -5 -8
right_child=-2 -3 4 12 -6 -7 13 -9 -10 -11 11 -13 -14 -15
leaf_value=233.66881861438108 -80.654897473089221 -356.69287298638022 -45.349043079015708 336.95205654266624 -225.17368461041923 -150.49956894832863 49.931800476049297 -159.66319030950714 6094.4550296336201 925.27224439342149 141.063438864407 -94.555893462352913 1542.308336766283 -302.78567915054253
leaf_count=96231 284522 14319 225634 26223 37685 33061 83646 15017 58 4118 149802 41806 1282 15428
internal_value=0 385.392 480.41 1344.91 -42.2973 948.351 1384.48 2626.43 3317.74 3275.62 208.102 1120.69 4914.17 -62.4258
internal_count=1028832 744310 729991 275064 454927 247559 214498 115424 100407 100349 417242 191608 27505 99074
shrinkage=0.08


Tree=58
num_leaves=15
num_cat=0
split_feature=5 19 2 3 3 3 16 16 8 2 6 20 2 15
split_gain=3.73703e+11 3.14789e+11 3.45087e+11 3.27346e+11 3.1927e+11 4.70503e+11 3.93532e+11 2.27751e+11 1.98902e+11 2.49599e+11 2.42501e+11 2.75771e+11 1.94626e+11 1.98175e+11
threshold=2531.4115795000007 1.0000000180025095e-35 97143.891212500021 147333.76949700003 86211.26602900002 61087.171861500006 1.5000000000000002 2.5000000000000004 1.0000000180025095e-35 146.55673824100003 1.0000000180025095e-35 1.5000000000000002 146.55673824100003 1.5000000000000002
decision_type=2 2 2 2 2 2 2 2 2 2 2 2 2 2
left_child=-1 4 3 -3 5 -2 8 -5 10 -10 -6 -12 -13 -14
right_child=1 2 -4 7 6 -7 -8 -9 9 -11 11 12 13 -15
leaf_value=-162.306889019312 60.44452152284542 -53.914343632817179 550.56544161393526 158.59624239014155 394.00550690600977 318.7704022092758 -548.79248769403728 -466.14731766095446 30.014893876595874 -364.45548346389342 -138.40010205284017 334.36958115392912 -90.81806815833778 519.59314757757443
leaf_count=83427 166976 487459 6630 70961 13170 61834 8509 3942 24848 17493 36996 21036 21507 4044
internal_value=0 179.034 -290.298 -374.857 888.484 1628.19 -258.182 1571.46 145.675 -1661.99 936.742 308.31 1926.99 72.4093
internal_count=1028832 945405 568992 562362 376413 228810 147603 74903 139094 42341 96753 83583 46587 25551
shrinkage=0.08


Tree=59
num_leaves=15
num_cat=0
split_feature=13 0 9 16 10 14 6 8 15 2 11 0 1 12
split_gain=3.44117e+11 3.66847e+11 3.12019e+11 3.4339e+11 3.49264e+11 3.07772e+11 3.85027e+11 6.98161e+11 3.00532e+11 2.8924e+11 2.85071e+11 4.2136e+11 2.70783e+11 2.61764e+11
threshold=1.0000000180025095e-35 5.5000000000000009 1.0000000180025095e-35 3.5000000000000004 1.0000000180025095e-35 1.0000000180025095e-35 1.0000000180025095e-35 1.0000000180025095e-35 1.5000000000000002 19699.318990887503 1.0000000180025095e-35 3.5000000000000004 27104.877267000007 1.0000000180025095e-35
decision_type=2 2 2 2 2 2 2 2 2 2 2 2 2 2
left_child=2 -2 3 4 5 6 7 13 9 -7 -8 -12 -3 -1
right_child=1 12 -4 -5 -6 8 10 -9 -10 -11 11 -13 -14 -15
leaf_value=786.95817293048879 -561.11076964007123 610.27808244445009 -21.746987440928944 -280.14005449223146 -128.59038119865235 315.51119658646934 101.4411952424463 -22.706555272780474 -319.86500694013949 955.70638083074675 -301.80365733379347 175.66140308631569 -128.71036356792163 -131.39154100326138
leaf_count=16358 12657 3372 613525 16739 40524 24767 167517 18059 3830 5524 30486 19329 53884 2261
internal_value=0 -2141.87 156.16 916.412 1141.44 1528.04 1149.25 4146.19 4347.95 5403.25 643.468 -1456.75 -1064.86 8442.98
internal_count=1028832 69913 958919 345394 328655 288131 254010 36678 34121 30291 217332 49815 57256 18619
shrinkage=0.08


Tree=60
num_leaves=15
num_cat=0
split_feature=5 4 19 15 10 9 2 0 4 16 1 8 11 13
split_gain=3.09975e+11 2.52947e+11 3.50837e+11 2.69089e+11 2.27693e+11 2.26086e+11 2.17491e+11 2.84258e+11 2.0383e+11 2.00679e+11 1.99112e+11 1.90232e+11 2.44148e+11 1.87305e+11
threshold=155621.73909750002 258632.08658600005 1.5000000000000002 4.5000000000000009 3.5000000000000004 13.500000000000002 5151.1764077640009 7.5000000000000009 223632.05878400002 13.500000000000002 114.58011300000003 1.0000000180025095e-35 28.500000000000004 1.0000000180025095e-35
decision_type=2 2 2 2 2 2 2 2 2 2 2 2 2 2
left_child=1 3 -3 4 9 13 7 10 -8 -1 -5 12 -7 -2
right_child=5 2 -4 6 -6 11 8 -9 -10 -11 -12 -13 -14 -15
leaf_value=11.040166180889571 73.899994768409769 -681.00400697826171 -80.973572085591897 -3033.5906874999996 -296.61641067634054 483.32155314741942 -566.3540116465756 -73.982094127725176 -139.77477625161038 -380.49243528116875 1535.646455930849 69.883847156784029 2069.8297581062029 -375.70151590098504
leaf_count=697215 193267 8596 22720 65 16243 9339 13227 27993 15652 8480 1001 8251 665 6118
internal_value=0 -284.314 -3070.97 -172.416 -6.01067 1059.7 -2245.91 -314.439 -4189.43 79.1913 15712.9 4428.09 7359.78 751.303
internal_count=1028832 811192 31316 779876 721938 217640 57938 29059 28879 705695 1066 18255 10004 199385
shrinkage=0.08


Tree=61
num_leaves=15
num_cat=0
split_feature=20 4 2 10 9 16 14 7 15 11 11 15 2 2
split_gain=2.90454e+11 2.30161e+11 2.65156e+11 2.09511e+11 2.03814e+11 2.73473e+11 2.78354e+11 3.25494e+11 4.44324e+11 3.56781e+11 5.94295e+11 3.00503e+11 2.64394e+11 2.63143e+11
threshold=101.50000000000001 259093.58488600006 316.69932573800008 3.5000000000000004 1.0000000180025095e-35 3.5000000000000004 1.0000000180025095e-35 1.0000000180025095e-35 1.0000000180025095e-35 5.5000000000000009 1.0000000180025095e-35 1.5000000000000002 19699.318990887503 15743.413745995504
decision_type=2 2 2 2 2 2 2 2 2 2 2 2 2 2
left_child=1 3 -3 4 5 6 7 9 -9 10 -1 12 -8 -6
right_child=-2 2 -4 -5 13 -7 11 8 -10 -11 -12 -13 -14 -15
leaf_value=66.040032655281308 -218.58927642677872 -1904.5408214830097 -283.22705001399567 -260.15401607850134 13.404392530581688 -260.12539699898133 258.58186566898621 122.3000010597226 753.63980300896674 444.81276237073473 -231.95356386768944 -340.13650099136737 838.2867771601201 -121.99772698297282
leaf_count=195129 37487 722 6099 17844 496887 15872 27397 31967 9184 12135 54878 4370 6169 112692
internal_value=0 103.322 -5685.53 143.429 206.104 806.026 994.762 675.336 3290.01 264.884 7.85867 3548.53 4564.05 -145.34
internal_count=1028832 991345 6821 984524 966680 357101 341229 303293 41151 262142 250007 37936 33566 609579
shrinkage=0.08


Tree=62
num_leaves=15
num_cat=0
split_feature=13 0 1 4 19 16 8 9 10 8 6 14 5 4
split_gain=2.67361e+11 2.92562e+11 2.31924e+11 2.29877e+11 2.47124e+11 2.2717e+11 3.05809e+11 2.35465e+11 2.56087e+11 2.46284e+11 4.23667e+11 4.31758e+11 3.13159e+11 3.35554e+11
threshold=1.0000000180025095e-35 5.5000000000000009 11035.144281000003 258893.48666000002 1.5000000000000002 6.5000000000000009 19.500000000000004 1.0000000180025095e-35 1.0000000180025095e-35 1.0000000180025095e-35 1.0000000180025095e-35 1.0000000180025095e-35 33539.218038000014 86528.655238000021
decision_type=2 2 2 2 2 2 2 2 2 2 2 2 2 2
left_child=3 -2 -3 5 -5 7 -7 8 9 10 -1 12 -12 -14
right_child=1 2 -4 4 -6 6 -8 -9 -10 -11 11 -13 13 -15
leaf_value=498.79553504016548 -499.10426594814595 699.72187719068938 -107.59325920854087 -739.32192539040238 -69.206060059208653 -574.27834020850457 -24.429690554402811 -7.77905506640559 -109.05977085460833 15.134351105123411 299.80924390983535 417.40926999331236 213.864390994746 -105.54533667883585
leaf_count=21223 12657 2376 54880 5257 10672 9561 20047 577860 41694 120776 26712 25508 30215 69394
internal_value=0 -1887.94 -926.143 137.646 -3629.53 201.282 -2524.83 289.651 955.979 1285.08 2049.92 1464.93 707.147 -108.211
internal_count=1028832 69913 57256 958919 15929 942990 29608 913382 335522 293828 173052 151829 126321 99609
shrinkage=0.08


Tree=63
num_leaves=15
num_cat=0
split_feature=11 2 4 9 3 3 18 4 3 18 16 2 3 2
split_gain=2.48361e+11 2.46745e+11 2.41656e+11 2.2678e+11 2.17499e+11 2.05166e+11 3.20972e+11 3.06169e+11 2.99185e+11 2.91372e+11 2.05847e+11 2.08187e+11 1.84035e+11 1.82115e+11
threshold=1.0000000180025095e-35 72422.118375000005 13012.757511500002 1.5000000000000002 254571.03386100006 54377.767337000012 8.5000000000000018 259093.58488600006 16222.850742000004 2.5000000000000004 2.5000000000000004 266.39353941000007 69774.236207500027 2.4199325000000003
decision_type=2 2 2 2 2 2 2 2 2 2 2 2 2 2
left_child=1 2 -1 -3 -2 8 7 10 9 -4 -7 -12 -8 -6
right_child=4 3 5 -5 13 6 12 -9 -10 -11 11 -13 -14 -15
leaf_value=256.44873635360523 -58.609577147204256 423.57840885975799 261.2040176956852 -46.439243881152628 160.67308035714288 39.806724624964723 127.04097758192562 -924.96879631098579 -160.18523800153048 -31.802717873912069 -850.1663334652028 -117.01733992758517 546.84399673895041 -1724.7211982235101
leaf_count=25602 283096 18308 26247 10247 511 388407 15833 2176 98554 125952 2861 18558 11565 915
internal_value=0 303.774 188.772 3186.4 -794.673 76.8588 488.741 268.34 -644.892 234.085 331.155 -2686.83 3803.06 -13113.7
internal_count=1028832 744310 715755 28555 284522 690153 439400 412002 250753 152199 409826 21419 27398 1426
shrinkage=0.08


Tree=64
num_leaves=15
num_cat=0
split_feature=20 5 8 0 3 3 9 15 2 0 1 4 2 5
split_gain=2.23139e+11 1.75814e+11 2.04675e+11 2.94023e+11 2.46869e+11 2.20071e+11 3.55258e+11 1.57937e+11 2.54475e+11 2.80463e+11 1.83706e+11 1.65799e+11 1.89721e+11 1.64447e+11
threshold=101.50000000000001 176327.89780400004 1.0000000180025095e-35 7.5000000000000009 5592.517226500001 61087.171861500006 1.0000000180025095e-35 4.5000000000000009 5151.1764077640009 7.5000000000000009 114.58011300000003 259093.58488600006 560.01917081800013 41880.534758000009
decision_type=2 2 2 2 2 2 2 2 2 2 2 2 2 2
left_child=1 7 3 5 -5 -3 -7 11 9 10 -9 -1 -13 -10
right_child=-2 2 -4 4 -6 6 -8 8 13 -11 -12 12 -14 -15
leaf_value=5.8471346281220145 -191.5920068860093 18.720345912624456 -46.865885945860839 1087.2497816488572 305.66449220855043 624.01249712196295 -17.639615429505138 -2736.3707946428572 -137.66080193769534 -13.155253389736409 1487.4915449218749 -1471.6195958285032 -225.02690818571551 -517.4158282235154
leaf_count=781932 37487 61167 48029 3369 11134 11401 10710 70 17544 26201 1125 918 5249 12496
internal_value=0 90.5614 1104.67 1935.03 6090.3 1211.38 3915.16 -84.3194 -1685.26 518.872 15500.9 32.3555 -5132.38 -3695.39
internal_count=1028832 991345 145810 97781 14503 83278 22111 845535 57436 27396 1195 788099 6167 30040
shrinkage=0.08


Tree=65
num_leaves=15
num_cat=0
split_feature=11 2 4 9 3 16 8 1 15 1 1 14 2 1
split_gain=2.07274e+11 2.08337e+11 1.99671e+11 1.91947e+11 1.80512e+11 1.78669e+11 1.8537e+11 1.70191e+11 1.65936e+11 2.02197e+11 1.75606e+11 1.5424e+11 1.52284e+11 1.52222e+11
threshold=1.0000000180025095e-35 72422.118375000005 13012.757511500002 1.5000000000000002 254571.03386100006 9.5000000000000018 17.500000000000004 83352.492011500013 2.5000000000000004 10.352809000000002 803.39397150000025 19.500000000000004 2.4199325000000003 0.70960950000000012
decision_type=2 2 2 2 2 2 2 2 2 2 2 2 2 2
left_child=1 2 -1 -3 13 8 -7 -8 11 -10 -11 -4 -6 -2
right_child=4 3 5 -5 12 6 7 -9 9 10 -12 -13 -14 -15
leaf_value=233.12931808305987 -273.95310127342611 389.27747939596333 20.981387614955405 -43.139607992900963 150.35845141267123 -766.75384440862433 -1428.6443360992864 11.573044530438388 -2735.1291377005286 470.94038857033638 -130.13021617966137 534.67661952398794 -1573.7175353697062 -37.941115436691298
leaf_count=25602 18729 18308 607115 10247 511 3753 564 7618 187 3270 63882 3764 915 264367
internal_value=0 277.511 171.838 2926.3 -725.97 70.1103 -3765.42 -1096.3 137.606 -1352.2 -1260.76 301.832 -11948.8 -669.439
internal_count=1028832 744310 715755 28555 284522 690153 11935 8182 678218 67339 67152 610879 1426 283096
shrinkage=0.08


Tree=66
num_leaves=15
num_cat=0
split_feature=13 0 4 13 2 10 9 16 0 6 2 6 14 8
split_gain=1.99413e+11 2.60898e+11 2.07249e+11 2.94323e+11 2.14035e+11 1.76634e+11 1.83494e+11 2.06235e+11 1.85056e+11 3.74231e+11 2.14566e+11 5.01734e+11 3.43596e+11 3.66565e+11
threshold=1.0000000180025095e-35 5.5000000000000009 179418.19718750005 3.5000000000000004 8753.7436332535017 3.5000000000000004 1.0000000180025095e-35 2.5000000000000004 1.5000000000000002 1.0000000180025095e-35 20943.837921750004 1.0000000180025095e-35 1.0000000180025095e-35 1.0000000180025095e-35
decision_type=2 2 2 2 2 2 2 2 2 2 2 2 2 2
left_child=5 -2 3 -3 -5 6 7 -1 9 -8 -10 -12 13 -13
right_child=1 2 -4 4 -6 -7 8 -9 10 -11 11 12 -14 -15
leaf_value=78.722463589671534 -459.13243046604367 -4.0500467325116229 -124.05414795851831 1222.4673754071664 -1174.8538669008196 -236.63657056953122 421.15406675563219 -170.1562769886612 21.154082420613847 -260.78462314620714 434.38115277856269 -315.64564043915811 479.48899851349523 169.1395536479879
leaf_count=312596 12657 6409 48130 2453 264 18302 5948 22868 477135 38401 9356 57600 4638 12075
internal_value=0 -1630.49 -722.224 3646.99 12369.1 118.876 178.743 771.96 -150.105 -2116.55 5.40439 -1471.71 -2340.6 -2895.38
internal_count=1028832 69913 57256 9126 2717 958919 940617 335464 605153 44349 560804 83669 74313 69675
shrinkage=0.08


Tree=67
num_leaves=15
num_cat=0
split_feature=5 10 8 1 19 8 1 0 6 1 3 3 18 5
split_gain=1.81334e+11 1.95554e+11 1.75045e+11 2.81891e+11 1.66064e+11 2.20065e+11 4.86599e+11 3.09522e+11 2.65596e+11 2.23126e+11 2.04621e+11 2.53176e+11 2.71944e+11 2.15888e+11
threshold=5302.6735640000015 1.5000000000000002 2.5000000000000004 66630.07730400002 1.0000000180025095e-35 1.0000000180025095e-35 83352.492011500013 5.5000000000000009 1.0000000180025095e-35 212.56873800000002 71647.547339000026 16222.850742000004 2.5000000000000004 23380.691938500004
decision_type=2 2 2 2 2 2 2 2 2 2 2 2 2 2
left_child=2 4 -1 -4 5 7 9 8 -2 -7 11 12 -6 -14
right_child=1 -3 3 -5 10 6 -8 -9 -10 -11 -12 -13 13 -15
leaf_value=-160.75412770064739 312.83184140673296 -167.94452257163715 -553.53145652363889 81.944133242083751 252.29779503308174 45.245175089273211 257.52314870050139 274.18634138209711 18.3238647702217 -208.67135105377625 42.773178079928961 -147.4664125891363 -177.86696089515311 47.400222332223855
leaf_count=81061 22546 36625 4910 49571 24970 35705 30052 55407 149872 58336 250275 114305 44144 71053
internal_value=0 163.534 -1077.77 308.413 260.277 787.566 -283.909 1371.18 710.435 -1403.32 -107.357 -738.79 161.954 -486.539
internal_count=1028832 893290 135542 54481 856665 351918 124093 227825 172418 94041 504747 254472 140167 115197
shrinkage=0.08


Tree=68
num_leaves=15
num_cat=0
split_feature=11 2 4 3 3 3 16 3 18 2 1 2 10 18
split_gain=1.69483e+11 1.83353e+11 1.5817e+11 1.65587e+11 3.15546e+11 2.7287e+11 3.13496e+11 2.7148e+11 2.3136e+11 1.70943e+11 1.72359e+11 1.63495e+11 1.53797e+11 1.48721e+11
threshold=1.0000000180025095e-35 139165.38505300003 13012.757511500002 54377.767337000012 107113.23118600002 136063.34898100005 1.5000000000000002 16222.850742000004 2.5000000000000004 1809.4662541025002 212.56873800000002 55837.594827416506 1.5000000000000002 8.5000000000000018
decision_type=2 2 2 2 2 2 2 2 2 2 2 2 2 2
left_child=1 2 -1 7 12 -6 11 8 -4 10 -8 -7 13 -5
right_child=-2 -3 3 4 5 6 9 -9 -10 -11 -12 -13 -14 -15
leaf_value=211.55655892361935 -52.516950459173657 426.29395583803176 214.82699615253617 99.849043598002027 -276.12831858661889 23.9642160702155 170.34455675588794 -142.36604340072739 -24.668202991666153 -11.365168750102269 -682.87458145038522 601.81108437657952 -192.12118157867698 305.3038250078846
leaf_count=25602 284522 7044 32448 170378 24533 198405 1847 103249 126288 6744 8437 3184 10163 25988
internal_value=0 250.941 202.427 114.576 482.758 -289.271 65.603 -517.384 303.602 -4054.67 -6620.46 413.638 1391.68 1588
internal_count=1028832 744310 737266 711664 449679 243150 218617 261985 158736 17028 10284 201589 206529 196366
shrinkage=0.08


Tree=69
num_leaves=15
num_cat=0
split_feature=20 3 11 8 15 1 2 6 2 0 2 3 15 14
split_gain=1.60368e+11 1.33333e+11 1.77237e+11 1.62499e+11 1.27566e+11 1.66313e+11 1.50865e+11 2.64109e+11 1.46271e+11 1.42422e+11 1.98488e+11 1.70762e+11 1.44239e+11 1.7432e+11
threshold=101.50000000000001 254571.03386100006 2.5000000000000004 6.5000000000000009 2.5000000000000004 10.352809000000002 2701.2496220890007 1.0000000180025095e-35 55837.594827416506 17.500000000000004 7.6983716185000013 96099.318322000021 3.5000000000000004 1.0000000180025095e-35
decision_type=2 2 2 2 2 2 2 2 2 2 2 2 2 2
left_child=1 4 3 -3 -1 -6 9 -8 -9 12 -11 -12 13 -7
right_child=-2 2 -4 -5 5 6 7 8 -10 10 11 -13 -14 -15
leaf_value=18.311297911381118 -162.423340344103 -126.05509099563419 -1948.4105448695593 -1404.8145213735645 -2452.3292294973544 75.316856885482181 421.02822454609623 -218.59650113411342 478.7039311076764 -5062.0576124999998 86.260283388430594 -536.76078857421874 658.89683066557143 -2685.0016501402242
leaf_count=891164 37487 9241 392 683 189 2385 4844 55107 1995 50 17244 3365 4530 156
internal_value=0 76.774 -3499.59 -2675.79 114.381 -1021.18 -958.726 -1826.53 -2427.93 979.869 -345.994 -193.318 4853.58 -1176.85
internal_count=1028832 991345 10316 9924 981029 89865 89676 61946 57102 27730 20659 20609 7071 2541
shrinkage=0.08


Tree=70
num_leaves=15
num_cat=0
split_feature=13 0 1 2 13 9 20 5 15 14 20 5 1 1
split_gain=1.48464e+11 2.35961e+11 1.79074e+11 1.57644e+11 1.55802e+11 1.43713e+11 1.89254e+11 1.88194e+11 2.45134e+11 2.36677e+11 1.88003e+11 1.7092e+11 1.64836e+11 3.77235e+11
threshold=1.0000000180025095e-35 5.5000000000000009 1852.9616155000003 182.46760301300006 3.5000000000000004 1.0000000180025095e-35 4.5000000000000009 33539.218038000014 1.0000000180025095e-35 1.5000000000000002 1.0000000180025095e-35 13934.873094000004 20.694742500000007 212.56873800000002
decision_type=2 2 2 2 2 2 2 2 2 2 2 2 2 2
left_child=5 -2 3 4 -3 6 7 8 9 -1 -9 -8 -7 -14
right_child=1 2 -4 -5 -6 12 11 10 -10 -11 -12 -13 13 -15
leaf_value=76.829511645935156 -425.13956637696634 -10.536500445758259 -63.045954438562752 4222.7456747159085 2128.3365099344137 -137.20952363622735 -265.82857452818195 82.111206184218844 492.74994607024485 916.73117064341716 -81.379553029452595 40.261585639665398 254.228052411497 -18.155021368612339
leaf_count=49793 12657 666 56178 88 324 63372 21504 171515 13759 2244 61034 25545 34734 515419
internal_value=0 -1406.86 -543.094 12223.6 8618.23 102.572 618.531 912.486 2405.63 1413.11 490.025 -1245.48 -187.896 -11.9759
